<?xml version="1.0"?>
<opencv_storage>
<stage1>
  <maxWeakCount>6</maxWeakCount>
  <stageThreshold>-1.8832092285156250e+00</stageThreshold>
  <weakClassifiers>
    <_>
      <internalNodes>
        0 -1 155553 6.0942385345697403e-02</internalNodes>
      <leafValues>
        -8.4225350618362427e-01 7.1851849555969238e-01</leafValues></_>
    <_>
      <internalNodes>
        0 -1 28582 -2.9742043465375900e-02</internalNodes>
      <leafValues>
        6.7371809482574463e-01 -6.7888838052749634e-01</leafValues></_>
    <_>
      <internalNodes>
        0 -1 106087 2.1012892946600914e-02</internalNodes>
      <leafValues>
        -7.8189611434936523e-01 5.0525885820388794e-01</leafValues></_>
    <_>
      <internalNodes>
        0 -1 143022 6.3659761508461088e-05</internalNodes>
      <leafValues>
        -8.5520082712173462e-01 3.8484430313110352e-01</leafValues></_>
    <_>
      <internalNodes>
        0 -1 1248 6.0008481144905090e-02</internalNodes>
      <leafValues>
        -4.2403322458267212e-01 9.5515263080596924e-01</leafValues></_>
    <_>
      <internalNodes>
        0 -1 151414 1.1048447340726852e-03</internalNodes>
      <leafValues>
        -8.2813721895217896e-01 5.1741880178451538e-01</leafValues></_></weakClassifiers></stage1>
</opencv_storage>
