<?xml version="1.0"?>
<opencv_storage>
<stage4>
  <maxWeakCount>6</maxWeakCount>
  <stageThreshold>-1.5364967584609985e+00</stageThreshold>
  <weakClassifiers>
    <_>
      <internalNodes>
        0 -1 15505 -4.7428775578737259e-02</internalNodes>
      <leafValues>
        5.8108109235763550e-01 -8.4220534563064575e-01</leafValues></_>
    <_>
      <internalNodes>
        0 -1 102506 -6.1808712780475616e-03</internalNodes>
      <leafValues>
        2.5606721639633179e-01 -8.3374679088592529e-01</leafValues></_>
    <_>
      <internalNodes>
        0 -1 138305 2.1581035980489105e-04</internalNodes>
      <leafValues>
        -8.4887003898620605e-01 2.6002103090286255e-01</leafValues></_>
    <_>
      <internalNodes>
        0 -1 14398 4.1283801198005676e-02</internalNodes>
      <leafValues>
        -4.0454953908920288e-01 7.2339689731597900e-01</leafValues></_>
    <_>
      <internalNodes>
        0 -1 156971 1.8911190330982208e-02</internalNodes>
      <leafValues>
        -3.9370900392532349e-01 6.9162034988403320e-01</leafValues></_>
    <_>
      <internalNodes>
        0 -1 11569 2.0676238462328911e-02</internalNodes>
      <leafValues>
        -3.8855934143066406e-01 7.4925726652145386e-01</leafValues></_></weakClassifiers></stage4>
</opencv_storage>
