<?xml version="1.0"?>
<opencv_storage>
<stage3>
  <maxWeakCount>5</maxWeakCount>
  <stageThreshold>-1.3699227571487427e+00</stageThreshold>
  <weakClassifiers>
    <_>
      <internalNodes>
        0 -1 161311 -3.7825316190719604e-02</internalNodes>
      <leafValues>
        8.9690721035003662e-01 -8.0417042970657349e-01</leafValues></_>
    <_>
      <internalNodes>
        0 -1 79999 -4.1088646650314331e-01</internalNodes>
      <leafValues>
        4.3024668097496033e-01 -9.0980935096740723e-01</leafValues></_>
    <_>
      <internalNodes>
        0 -1 37891 1.2512072920799255e-02</internalNodes>
      <leafValues>
        -5.6085103750228882e-01 7.9400974512100220e-01</leafValues></_>
    <_>
      <internalNodes>
        0 -1 95198 -2.8378816205076873e-04</internalNodes>
      <leafValues>
        4.0379726886749268e-01 -8.3567237854003906e-01</leafValues></_>
    <_>
      <internalNodes>
        0 -1 40744 -1.3111431617289782e-03</internalNodes>
      <leafValues>
        5.0111085176467896e-01 -5.8840560913085938e-01</leafValues></_></weakClassifiers></stage3>
</opencv_storage>
