<?xml version="1.0"?>
<opencv_storage>
<stage11>
  <maxWeakCount>8</maxWeakCount>
  <stageThreshold>-1.5162374973297119e+00</stageThreshold>
  <weakClassifiers>
    <_>
      <internalNodes>
        0 -1 3197 4.0806360542774200e-02</internalNodes>
      <leafValues>
        -7.7358490228652954e-01 7.0114940404891968e-01</leafValues></_>
    <_>
      <internalNodes>
        0 -1 126276 3.0661894008517265e-02</internalNodes>
      <leafValues>
        -7.6228630542755127e-01 3.1922268867492676e-01</leafValues></_>
    <_>
      <internalNodes>
        0 -1 84416 -9.3125216662883759e-03</internalNodes>
      <leafValues>
        -8.4123516082763672e-01 2.4208416044712067e-01</leafValues></_>
    <_>
      <internalNodes>
        0 -1 96858 -2.5244023650884628e-02</internalNodes>
      <leafValues>
        2.1107034385204315e-01 -8.7949764728546143e-01</leafValues></_>
    <_>
      <internalNodes>
        0 -1 39667 -4.7196559607982635e-02</internalNodes>
      <leafValues>
        5.8708292245864868e-01 -4.1683211922645569e-01</leafValues></_>
    <_>
      <internalNodes>
        0 -1 159734 -1.5174405649304390e-02</internalNodes>
      <leafValues>
        -6.7636477947235107e-01 3.5958442091941833e-01</leafValues></_>
    <_>
      <internalNodes>
        0 -1 22754 -7.3620618786662817e-04</internalNodes>
      <leafValues>
        -1. 1.4577275514602661e-01</leafValues></_>
    <_>
      <internalNodes>
        0 -1 70538 3.0008492991328239e-02</internalNodes>
      <leafValues>
        -4.0364173054695129e-01 5.6852209568023682e-01</leafValues></_></weakClassifiers></stage11>
</opencv_storage>
