<?xml version="1.0"?>
<opencv_storage>
<stage9>
  <maxWeakCount>6</maxWeakCount>
  <stageThreshold>-1.2284638881683350e+00</stageThreshold>
  <weakClassifiers>
    <_>
      <internalNodes>
        0 -1 160026 1.5954166650772095e-02</internalNodes>
      <leafValues>
        -8.1765276193618774e-01 2.5443786382675171e-01</leafValues></_>
    <_>
      <internalNodes>
        0 -1 158062 -5.1468115299940109e-02</internalNodes>
      <leafValues>
        7.4225062131881714e-01 -5.2781575918197632e-01</leafValues></_>
    <_>
      <internalNodes>
        0 -1 127162 -2.0840805955231190e-03</internalNodes>
      <leafValues>
        3.8693067431449890e-01 -7.4963074922561646e-01</leafValues></_>
    <_>
      <internalNodes>
        0 -1 148010 1.0313618928194046e-02</internalNodes>
      <leafValues>
        -6.1574035882949829e-01 4.1751933097839355e-01</leafValues></_>
    <_>
      <internalNodes>
        0 -1 108024 3.6755297333002090e-04</internalNodes>
      <leafValues>
        2.5833120942115784e-01 -8.6602258682250977e-01</leafValues></_>
    <_>
      <internalNodes>
        0 -1 108590 -6.1831111088395119e-04</internalNodes>
      <leafValues>
        -9.6468096971511841e-01 1.9078481197357178e-01</leafValues></_></weakClassifiers></stage9>
</opencv_storage>
