<?xml version="1.0"?>
<opencv_storage>
<cascade>
  <stageType>BOOST</stageType>
  <featureType>HAAR</featureType>
  <height>24</height>
  <width>24</width>
  <stageParams>
    <boostType>GAB</boostType>
    <minHitRate>9.9900001287460327e-01</minHitRate>
    <maxFalseAlarm>4.0000000596046448e-01</maxFalseAlarm>
    <weightTrimRate>9.4999999999999996e-01</weightTrimRate>
    <maxDepth>1</maxDepth>
    <maxWeakCount>100</maxWeakCount></stageParams>
  <featureParams>
    <maxCatCount>0</maxCatCount>
    <featSize>1</featSize>
    <mode>BASIC</mode></featureParams>
  <stageNum>50</stageNum>
  <stages>
    <!-- stage 0 -->
    <_>
      <maxWeakCount>2</maxWeakCount>
      <stageThreshold>-1.7761582136154175e-01</stageThreshold>
      <weakClassifiers>
        <_>
          <internalNodes>
            0 -1 123 -4.9905516207218170e-02</internalNodes>
          <leafValues>
            8.0952382087707520e-01 -8.9473682641983032e-01</leafValues></_>
        <_>
          <internalNodes>
            0 -1 11 2.8832368552684784e-02</internalNodes>
          <leafValues>
            -8.2507050037384033e-01 7.1712100505828857e-01</leafValues></_></weakClassifiers></_>
    <!-- stage 1 -->
    <_>
      <maxWeakCount>2</maxWeakCount>
      <stageThreshold>5.9454541653394699e-02</stageThreshold>
      <weakClassifiers>
        <_>
          <internalNodes>
            0 -1 115 -6.5839961171150208e-02</internalNodes>
          <leafValues>
            7.7528089284896851e-01 -6.2162160873413086e-01</leafValues></_>
        <_>
          <internalNodes>
            0 -1 7 2.5267168879508972e-02</internalNodes>
          <leafValues>
            -7.0102596282958984e-01 6.8107616901397705e-01</leafValues></_></weakClassifiers></_>
    <!-- stage 2 -->
    <_>
      <maxWeakCount>2</maxWeakCount>
      <stageThreshold>-1.3815897703170776e-01</stageThreshold>
      <weakClassifiers>
        <_>
          <internalNodes>
            0 -1 179 -1.4154299162328243e-02</internalNodes>
          <leafValues>
            7.0588237047195435e-01 -7.3469388484954834e-01</leafValues></_>
        <_>
          <internalNodes>
            0 -1 104 -6.9220520555973053e-02</internalNodes>
          <leafValues>
            5.9653490781784058e-01 -6.8791943788528442e-01</leafValues></_></weakClassifiers></_>
    <!-- stage 3 -->
    <_>
      <maxWeakCount>5</maxWeakCount>
      <stageThreshold>1.5344237908720970e-03</stageThreshold>
      <weakClassifiers>
        <_>
          <internalNodes>
            0 -1 2 2.0202567800879478e-02</internalNodes>
          <leafValues>
            -6.6315788030624390e-01 6.0000002384185791e-01</leafValues></_>
        <_>
          <internalNodes>
            0 -1 139 2.1270524710416794e-02</internalNodes>
          <leafValues>
            -6.2442862987518311e-01 6.1810958385467529e-01</leafValues></_>
        <_>
          <internalNodes>
            0 -1 187 -3.1515647424384952e-04</internalNodes>
          <leafValues>
            5.0297164916992188e-01 -7.5995945930480957e-01</leafValues></_>
        <_>
          <internalNodes>
            0 -1 29 -1.9927170127630234e-02</internalNodes>
          <leafValues>
            -1. 3.4546187520027161e-01</leafValues></_>
        <_>
          <internalNodes>
            0 -1 113 3.1476796721108258e-04</internalNodes>
          <leafValues>
            -6.6949683427810669e-01 4.6108031272888184e-01</leafValues></_></weakClassifiers></_>
    <!-- stage 4 -->
    <_>
      <maxWeakCount>5</maxWeakCount>
      <stageThreshold>-1.2542871236801147e+00</stageThreshold>
      <weakClassifiers>
        <_>
          <internalNodes>
            0 -1 20 4.9436852335929871e-02</internalNodes>
          <leafValues>
            -4.1463413834571838e-01 6.6233766078948975e-01</leafValues></_>
        <_>
          <internalNodes>
            0 -1 151 -8.0357855185866356e-03</internalNodes>
          <leafValues>
            4.6257808804512024e-01 -5.6156343221664429e-01</leafValues></_>
        <_>
          <internalNodes>
            0 -1 36 5.2305445075035095e-02</internalNodes>
          <leafValues>
            -4.1723519563674927e-01 6.5093380212783813e-01</leafValues></_>
        <_>
          <internalNodes>
            0 -1 126 3.2680574804544449e-03</internalNodes>
          <leafValues>
            -5.3942042589187622e-01 5.0717246532440186e-01</leafValues></_>
        <_>
          <internalNodes>
            0 -1 39 4.4413832947611809e-03</internalNodes>
          <leafValues>
            -3.9840570092201233e-01 7.3360896110534668e-01</leafValues></_></weakClassifiers></_>
    <!-- stage 5 -->
    <_>
      <maxWeakCount>6</maxWeakCount>
      <stageThreshold>-5.0463390350341797e-01</stageThreshold>
      <weakClassifiers>
        <_>
          <internalNodes>
            0 -1 147 -6.7135155200958252e-02</internalNodes>
          <leafValues>
            5.0476193428039551e-01 -5.5789476633071899e-01</leafValues></_>
        <_>
          <internalNodes>
            0 -1 214 -4.1020881326403469e-05</internalNodes>
          <leafValues>
            4.7462210059165955e-01 -5.5020481348037720e-01</leafValues></_>
        <_>
          <internalNodes>
            0 -1 10 -3.6643996834754944e-02</internalNodes>
          <leafValues>
            -9.2307680845260620e-01 2.0056140422821045e-01</leafValues></_>
        <_>
          <internalNodes>
            0 -1 13 -4.8263445496559143e-03</internalNodes>
          <leafValues>
            6.5133976936340332e-01 -4.3443694710731506e-01</leafValues></_>
        <_>
          <internalNodes>
            0 -1 38 5.4614024702459574e-04</internalNodes>
          <leafValues>
            -5.9350866079330444e-01 4.7773572802543640e-01</leafValues></_>
        <_>
          <internalNodes>
            0 -1 87 1.6209122259169817e-03</internalNodes>
          <leafValues>
            -6.5231889486312866e-01 4.0602299571037292e-01</leafValues></_></weakClassifiers></_>
    <!-- stage 6 -->
    <_>
      <maxWeakCount>5</maxWeakCount>
      <stageThreshold>-6.7070573568344116e-01</stageThreshold>
      <weakClassifiers>
        <_>
          <internalNodes>
            0 -1 96 -2.7930852770805359e-01</internalNodes>
          <leafValues>
            3.6690646409988403e-01 -8.3606559038162231e-01</leafValues></_>
        <_>
          <internalNodes>
            0 -1 34 2.8473695740103722e-02</internalNodes>
          <leafValues>
            -4.7470977902412415e-01 5.4509878158569336e-01</leafValues></_>
        <_>
          <internalNodes>
            0 -1 186 -1.0318839922547340e-03</internalNodes>
          <leafValues>
            4.2749056220054626e-01 -6.3927555084228516e-01</leafValues></_>
        <_>
          <internalNodes>
            0 -1 203 -4.6497315634042025e-04</internalNodes>
          <leafValues>
            5.2049642801284790e-01 -4.6509605646133423e-01</leafValues></_>
        <_>
          <internalNodes>
            0 -1 108 -1.4125007204711437e-02</internalNodes>
          <leafValues>
            5.9587752819061279e-01 -4.4412332773208618e-01</leafValues></_></weakClassifiers></_>
    <!-- stage 7 -->
    <_>
      <maxWeakCount>6</maxWeakCount>
      <stageThreshold>-4.7696810960769653e-01</stageThreshold>
      <weakClassifiers>
        <_>
          <internalNodes>
            0 -1 211 3.4297487582080066e-04</internalNodes>
          <leafValues>
            2.8169015049934387e-01 -6.8965518474578857e-01</leafValues></_>
        <_>
          <internalNodes>
            0 -1 51 1.6210692003369331e-02</internalNodes>
          <leafValues>
            -3.0175763368606567e-01 6.9220983982086182e-01</leafValues></_>
        <_>
          <internalNodes>
            0 -1 4 4.9588058143854141e-02</internalNodes>
          <leafValues>
            -5.4035717248916626e-01 3.3167266845703125e-01</leafValues></_>
        <_>
          <internalNodes>
            0 -1 138 -4.2270630598068237e-01</internalNodes>
          <leafValues>
            -5.3449732065200806e-01 3.8644447922706604e-01</leafValues></_>
        <_>
          <internalNodes>
            0 -1 58 5.5158068425953388e-04</internalNodes>
          <leafValues>
            -5.4524433612823486e-01 3.1604033708572388e-01</leafValues></_>
        <_>
          <internalNodes>
            0 -1 1 2.2563201127923094e-05</internalNodes>
          <leafValues>
            -4.8349863290786743e-01 4.0122902393341064e-01</leafValues></_></weakClassifiers></_>
    <!-- stage 8 -->
    <_>
      <maxWeakCount>7</maxWeakCount>
      <stageThreshold>-5.7343304157257080e-01</stageThreshold>
      <weakClassifiers>
        <_>
          <internalNodes>
            0 -1 144 -7.1666583418846130e-02</internalNodes>
          <leafValues>
            4.2857143282890320e-01 -5.4545456171035767e-01</leafValues></_>
        <_>
          <internalNodes>
            0 -1 64 -3.6736838519573212e-03</internalNodes>
          <leafValues>
            -7.1736395359039307e-01 3.8510012626647949e-01</leafValues></_>
        <_>
          <internalNodes>
            0 -1 122 -1.3909224420785904e-02</internalNodes>
          <leafValues>
            7.3495525121688843e-01 -3.9849904179573059e-01</leafValues></_>
        <_>
          <internalNodes>
            0 -1 5 6.5177679061889648e-02</internalNodes>
          <leafValues>
            -2.9401230812072754e-01 9.2347985506057739e-01</leafValues></_>
        <_>
          <internalNodes>
            0 -1 205 -2.5708419343573041e-05</internalNodes>
          <leafValues>
            4.8307687044143677e-01 -5.2659112215042114e-01</leafValues></_>
        <_>
          <internalNodes>
            0 -1 42 -1.5919747966108844e-05</internalNodes>
          <leafValues>
            -5.7062745094299316e-01 6.0032230615615845e-01</leafValues></_>
        <_>
          <internalNodes>
            0 -1 17 -2.4004935403354466e-04</internalNodes>
          <leafValues>
            -8.5487210750579834e-01 3.7163507938385010e-01</leafValues></_></weakClassifiers></_>
    <!-- stage 9 -->
    <_>
      <maxWeakCount>6</maxWeakCount>
      <stageThreshold>-1.0350098609924316e+00</stageThreshold>
      <weakClassifiers>
        <_>
          <internalNodes>
            0 -1 135 -5.0604618154466152e-03</internalNodes>
          <leafValues>
            9.1304349899291992e-01 -2.7272728085517883e-01</leafValues></_>
        <_>
          <internalNodes>
            0 -1 60 4.0487354272045195e-04</internalNodes>
          <leafValues>
            -3.0352890491485596e-01 6.2238901853561401e-01</leafValues></_>
        <_>
          <internalNodes>
            0 -1 189 -1.4682608889415860e-03</internalNodes>
          <leafValues>
            8.0001550912857056e-01 -2.9826837778091431e-01</leafValues></_>
        <_>
          <internalNodes>
            0 -1 25 2.2667259909212589e-03</internalNodes>
          <leafValues>
            -4.6604871749877930e-01 5.4615753889083862e-01</leafValues></_>
        <_>
          <internalNodes>
            0 -1 22 2.2653564810752869e-02</internalNodes>
          <leafValues>
            -2.9604426026344299e-01 8.4718173742294312e-01</leafValues></_>
        <_>
          <internalNodes>
            0 -1 208 -1.5066066989675164e-03</internalNodes>
          <leafValues>
            5.8650934696197510e-01 -4.9667617678642273e-01</leafValues></_></weakClassifiers></_>
    <!-- stage 10 -->
    <_>
      <maxWeakCount>4</maxWeakCount>
      <stageThreshold>1.4251120388507843e-01</stageThreshold>
      <weakClassifiers>
        <_>
          <internalNodes>
            0 -1 137 9.5466457423754036e-05</internalNodes>
          <leafValues>
            -5.7142859697341919e-01 7.2727274894714355e-01</leafValues></_>
        <_>
          <internalNodes>
            0 -1 43 -1.2820663861930370e-02</internalNodes>
          <leafValues>
            7.5764936208724976e-01 -5.5125576257705688e-01</leafValues></_>
        <_>
          <internalNodes>
            0 -1 32 -1.0362765751779079e-02</internalNodes>
          <leafValues>
            4.2351028323173523e-01 -1.</leafValues></_>
        <_>
          <internalNodes>
            0 -1 65 -2.1111736714374274e-05</internalNodes>
          <leafValues>
            8.8556921482086182e-01 -4.5701602101325989e-01</leafValues></_></weakClassifiers></_>
    <!-- stage 11 -->
    <_>
      <maxWeakCount>3</maxWeakCount>
      <stageThreshold>-2.6705056428909302e-01</stageThreshold>
      <weakClassifiers>
        <_>
          <internalNodes>
            0 -1 3 -2.2632354497909546e-01</internalNodes>
          <leafValues>
            -4.2857143282890320e-01 1.</leafValues></_>
        <_>
          <internalNodes>
            0 -1 143 -1.4461955055594444e-02</internalNodes>
          <leafValues>
            7.3790955543518066e-01 -5.8423960208892822e-01</leafValues></_>
        <_>
          <internalNodes>
            0 -1 161 2.3554894141852856e-04</internalNodes>
          <leafValues>
            -5.7638871669769287e-01 7.6514130830764771e-01</leafValues></_></weakClassifiers></_>
    <!-- stage 12 -->
    <_>
      <maxWeakCount>5</maxWeakCount>
      <stageThreshold>-6.1258834600448608e-01</stageThreshold>
      <weakClassifiers>
        <_>
          <internalNodes>
            0 -1 116 -3.7932232953608036e-03</internalNodes>
          <leafValues>
            8.4848487377166748e-01 -4.1791045665740967e-01</leafValues></_>
        <_>
          <internalNodes>
            0 -1 53 -7.5218896381556988e-04</internalNodes>
          <leafValues>
            -8.4050756692886353e-01 4.1028469800949097e-01</leafValues></_>
        <_>
          <internalNodes>
            0 -1 175 -7.8702426981180906e-04</internalNodes>
          <leafValues>
            4.6666184067726135e-01 -7.9258048534393311e-01</leafValues></_>
        <_>
          <internalNodes>
            0 -1 106 2.0544813014566898e-04</internalNodes>
          <leafValues>
            -3.6446583271026611e-01 9.6296995878219604e-01</leafValues></_>
        <_>
          <internalNodes>
            0 -1 65 1.2149514805059880e-04</internalNodes>
          <leafValues>
            5.5208373069763184e-01 -6.1838638782501221e-01</leafValues></_></weakClassifiers></_>
    <!-- stage 13 -->
    <_>
      <maxWeakCount>4</maxWeakCount>
      <stageThreshold>-1.0258293151855469e+00</stageThreshold>
      <weakClassifiers>
        <_>
          <internalNodes>
            0 -1 14 6.5467029809951782e-02</internalNodes>
          <leafValues>
            -4.3750000000000000e-01 7.7777779102325439e-01</leafValues></_>
        <_>
          <internalNodes>
            0 -1 204 8.5114716785028577e-04</internalNodes>
          <leafValues>
            4.1845107078552246e-01 -7.2233623266220093e-01</leafValues></_>
        <_>
          <internalNodes>
            0 -1 56 1.1286683380603790e-02</internalNodes>
          <leafValues>
            -6.1644721031188965e-01 5.7578581571578979e-01</leafValues></_>
        <_>
          <internalNodes>
            0 -1 133 -1.5594444703310728e-03</internalNodes>
          <leafValues>
            7.5045406818389893e-01 -5.9159141778945923e-01</leafValues></_></weakClassifiers></_>
    <!-- stage 14 -->
    <_>
      <maxWeakCount>6</maxWeakCount>
      <stageThreshold>-5.1573967933654785e-01</stageThreshold>
      <weakClassifiers>
        <_>
          <internalNodes>
            0 -1 192 -4.9494756385684013e-03</internalNodes>
          <leafValues>
            6.8539327383041382e-01 -5.4954952001571655e-01</leafValues></_>
        <_>
          <internalNodes>
            0 -1 21 -6.1003014445304871e-02</internalNodes>
          <leafValues>
            6.6249924898147583e-01 -4.8110020160675049e-01</leafValues></_>
        <_>
          <internalNodes>
            0 -1 19 -3.7555128801614046e-04</internalNodes>
          <leafValues>
            8.3804416656494141e-01 -3.8373857736587524e-01</leafValues></_>
        <_>
          <internalNodes>
            0 -1 98 1.3356024282984436e-04</internalNodes>
          <leafValues>
            -3.1319996714591980e-01 1.</leafValues></_>
        <_>
          <internalNodes>
            0 -1 59 1.3078506104648113e-02</internalNodes>
          <leafValues>
            -4.3983924388885498e-01 6.5006029605865479e-01</leafValues></_>
        <_>
          <internalNodes>
            0 -1 197 -1.1131091741845012e-04</internalNodes>
          <leafValues>
            5.3175103664398193e-01 -6.5999442338943481e-01</leafValues></_></weakClassifiers></_>
    <!-- stage 15 -->
    <_>
      <maxWeakCount>5</maxWeakCount>
      <stageThreshold>-2.2084547579288483e-01</stageThreshold>
      <weakClassifiers>
        <_>
          <internalNodes>
            0 -1 102 1.8760485574603081e-02</internalNodes>
          <leafValues>
            -4.5312500000000000e-01 8.0555558204650879e-01</leafValues></_>
        <_>
          <internalNodes>
            0 -1 162 -2.7352641336619854e-04</internalNodes>
          <leafValues>
            6.3709759712219238e-01 -4.6351727843284607e-01</leafValues></_>
        <_>
          <internalNodes>
            0 -1 49 -2.7677067555487156e-04</internalNodes>
          <leafValues>
            -6.8806946277618408e-01 4.5562070608139038e-01</leafValues></_>
        <_>
          <internalNodes>
            0 -1 52 -5.0739422440528870e-03</internalNodes>
          <leafValues>
            8.0576843023300171e-01 -3.9023065567016602e-01</leafValues></_>
        <_>
          <internalNodes>
            0 -1 170 -2.7304161339998245e-03</internalNodes>
          <leafValues>
            6.7348200082778931e-01 -4.1401207447052002e-01</leafValues></_></weakClassifiers></_>
    <!-- stage 16 -->
    <_>
      <maxWeakCount>5</maxWeakCount>
      <stageThreshold>-3.8124746084213257e-01</stageThreshold>
      <weakClassifiers>
        <_>
          <internalNodes>
            0 -1 0 -5.0633813953027129e-04</internalNodes>
          <leafValues>
            -7.7464789152145386e-01 4.2635658383369446e-01</leafValues></_>
        <_>
          <internalNodes>
            0 -1 114 -2.0076557993888855e-03</internalNodes>
          <leafValues>
            5.9284996986389160e-01 -5.7434368133544922e-01</leafValues></_>
        <_>
          <internalNodes>
            0 -1 62 4.7366754733957350e-04</internalNodes>
          <leafValues>
            -3.6279031634330750e-01 8.0863970518112183e-01</leafValues></_>
        <_>
          <internalNodes>
            0 -1 155 5.8147450909018517e-04</internalNodes>
          <leafValues>
            -4.8251247406005859e-01 6.8901908397674561e-01</leafValues></_>
        <_>
          <internalNodes>
            0 -1 74 8.0480927135795355e-04</internalNodes>
          <leafValues>
            -4.9178883433341980e-01 6.4585322141647339e-01</leafValues></_></weakClassifiers></_>
    <!-- stage 17 -->
    <_>
      <maxWeakCount>5</maxWeakCount>
      <stageThreshold>-3.4486868977546692e-01</stageThreshold>
      <weakClassifiers>
        <_>
          <internalNodes>
            0 -1 48 -3.6085897590965033e-04</internalNodes>
          <leafValues>
            -7.7215188741683960e-01 5.0413221120834351e-01</leafValues></_>
        <_>
          <internalNodes>
            0 -1 157 -1.8718849867582321e-02</internalNodes>
          <leafValues>
            -5.5249166488647461e-01 7.2964334487915039e-01</leafValues></_>
        <_>
          <internalNodes>
            0 -1 15 4.6205951366573572e-04</internalNodes>
          <leafValues>
            8.4202241897583008e-01 -5.2564388513565063e-01</leafValues></_>
        <_>
          <internalNodes>
            0 -1 79 3.2527449075132608e-03</internalNodes>
          <leafValues>
            -5.0933337211608887e-01 7.7229982614517212e-01</leafValues></_>
        <_>
          <internalNodes>
            0 -1 118 8.6128531256690621e-04</internalNodes>
          <leafValues>
            -5.4316526651382446e-01 8.5611891746520996e-01</leafValues></_></weakClassifiers></_>
    <!-- stage 18 -->
    <_>
      <maxWeakCount>5</maxWeakCount>
      <stageThreshold>-2.9672783613204956e-01</stageThreshold>
      <weakClassifiers>
        <_>
          <internalNodes>
            0 -1 125 5.8407813776284456e-04</internalNodes>
          <leafValues>
            -4.7619047760963440e-01 8.1081080436706543e-01</leafValues></_>
        <_>
          <internalNodes>
            0 -1 55 -1.0825686622411013e-03</internalNodes>
          <leafValues>
            -9.2951029539108276e-01 5.3110867738723755e-01</leafValues></_>
        <_>
          <internalNodes>
            0 -1 176 1.0324497707188129e-03</internalNodes>
          <leafValues>
            -5.3913593292236328e-01 8.0932784080505371e-01</leafValues></_>
        <_>
          <internalNodes>
            0 -1 61 -2.9728393201366998e-05</internalNodes>
          <leafValues>
            -4.9421554803848267e-01 7.4732959270477295e-01</leafValues></_>
        <_>
          <internalNodes>
            0 -1 71 3.2670460641384125e-02</internalNodes>
          <leafValues>
            -3.8622203469276428e-01 8.9790874719619751e-01</leafValues></_></weakClassifiers></_>
    <!-- stage 19 -->
    <_>
      <maxWeakCount>5</maxWeakCount>
      <stageThreshold>-1.0609556436538696e+00</stageThreshold>
      <weakClassifiers>
        <_>
          <internalNodes>
            0 -1 41 -5.4000855016056448e-05</internalNodes>
          <leafValues>
            6.2352943420410156e-01 -4.6086955070495605e-01</leafValues></_>
        <_>
          <internalNodes>
            0 -1 124 4.0144784725271165e-04</internalNodes>
          <leafValues>
            6.1018276214599609e-01 -6.0879361629486084e-01</leafValues></_>
        <_>
          <internalNodes>
            0 -1 145 9.5668289577588439e-04</internalNodes>
          <leafValues>
            -4.7079727053642273e-01 8.0351126194000244e-01</leafValues></_>
        <_>
          <internalNodes>
            0 -1 156 -7.9405977157875896e-04</internalNodes>
          <leafValues>
            9.4975996017456055e-01 -3.6576503515243530e-01</leafValues></_>
        <_>
          <internalNodes>
            0 -1 93 -1.0249590268358588e-03</internalNodes>
          <leafValues>
            7.8556823730468750e-01 -3.7370643019676208e-01</leafValues></_></weakClassifiers></_>
    <!-- stage 20 -->
    <_>
      <maxWeakCount>4</maxWeakCount>
      <stageThreshold>-6.8161195516586304e-01</stageThreshold>
      <weakClassifiers>
        <_>
          <internalNodes>
            0 -1 178 -1.2585341930389404e-02</internalNodes>
          <leafValues>
            9.3103450536727905e-01 -3.8028168678283691e-01</leafValues></_>
        <_>
          <internalNodes>
            0 -1 177 -7.7497209422290325e-03</internalNodes>
          <leafValues>
            6.7459034919738770e-01 -5.0210148096084595e-01</leafValues></_>
        <_>
          <internalNodes>
            0 -1 163 1.1738541070371866e-03</internalNodes>
          <leafValues>
            -3.5455146431922913e-01 9.5693713426589966e-01</leafValues></_>
        <_>
          <internalNodes>
            0 -1 120 1.3230220065452158e-04</internalNodes>
          <leafValues>
            5.5532264709472656e-01 -7.0788627862930298e-01</leafValues></_></weakClassifiers></_>
    <!-- stage 21 -->
    <_>
      <maxWeakCount>5</maxWeakCount>
      <stageThreshold>-1.8708162009716034e-01</stageThreshold>
      <weakClassifiers>
        <_>
          <internalNodes>
            0 -1 168 5.6591117754578590e-04</internalNodes>
          <leafValues>
            5.5963301658630371e-01 -6.7032968997955322e-01</leafValues></_>
        <_>
          <internalNodes>
            0 -1 9 -3.0592763796448708e-02</internalNodes>
          <leafValues>
            1. -3.5674640536308289e-01</leafValues></_>
        <_>
          <internalNodes>
            0 -1 92 1.7665908671915531e-04</internalNodes>
          <leafValues>
            -5.4848694801330566e-01 6.4736056327819824e-01</leafValues></_>
        <_>
          <internalNodes>
            0 -1 167 2.7711748771253042e-05</internalNodes>
          <leafValues>
            -3.8005933165550232e-01 8.9254343509674072e-01</leafValues></_>
        <_>
          <internalNodes>
            0 -1 198 2.3146528750658035e-02</internalNodes>
          <leafValues>
            5.7269322872161865e-01 -6.5688222646713257e-01</leafValues></_></weakClassifiers></_>
    <!-- stage 22 -->
    <_>
      <maxWeakCount>5</maxWeakCount>
      <stageThreshold>-3.2087731361389160e-01</stageThreshold>
      <weakClassifiers>
        <_>
          <internalNodes>
            0 -1 159 -1.7165224999189377e-03</internalNodes>
          <leafValues>
            8.7692308425903320e-01 -4.2222222685813904e-01</leafValues></_>
        <_>
          <internalNodes>
            0 -1 129 4.2632408440113068e-03</internalNodes>
          <leafValues>
            6.3248968124389648e-01 -5.8277595043182373e-01</leafValues></_>
        <_>
          <internalNodes>
            0 -1 86 -1.4788504922762513e-03</internalNodes>
          <leafValues>
            -8.9593380689620972e-01 4.2589327692985535e-01</leafValues></_>
        <_>
          <internalNodes>
            0 -1 78 2.9246001504361629e-03</internalNodes>
          <leafValues>
            -4.4728091359138489e-01 1.</leafValues></_>
        <_>
          <internalNodes>
            0 -1 105 -4.8472035676240921e-02</internalNodes>
          <leafValues>
            7.9289042949676514e-01 -5.0975710153579712e-01</leafValues></_></weakClassifiers></_>
    <!-- stage 23 -->
    <_>
      <maxWeakCount>3</maxWeakCount>
      <stageThreshold>-2.4334722757339478e-01</stageThreshold>
      <weakClassifiers>
        <_>
          <internalNodes>
            0 -1 154 -2.1438529714941978e-02</internalNodes>
          <leafValues>
            1. -4.7058823704719543e-01</leafValues></_>
        <_>
          <internalNodes>
            0 -1 184 -1.0049516567960382e-03</internalNodes>
          <leafValues>
            8.4859627485275269e-01 -4.8049226403236389e-01</leafValues></_>
        <_>
          <internalNodes>
            0 -1 85 -4.6457593271043152e-05</internalNodes>
          <leafValues>
            7.0781332254409790e-01 -6.2135523557662964e-01</leafValues></_></weakClassifiers></_>
    <!-- stage 24 -->
    <_>
      <maxWeakCount>5</maxWeakCount>
      <stageThreshold>-9.2682760953903198e-01</stageThreshold>
      <weakClassifiers>
        <_>
          <internalNodes>
            0 -1 148 9.0867152903228998e-04</internalNodes>
          <leafValues>
            -4.0298506617546082e-01 8.1818181276321411e-01</leafValues></_>
        <_>
          <internalNodes>
            0 -1 180 -1.7364688392262906e-04</internalNodes>
          <leafValues>
            8.6565303802490234e-01 -2.9343298077583313e-01</leafValues></_>
        <_>
          <internalNodes>
            0 -1 136 1.3581132516264915e-03</internalNodes>
          <leafValues>
            -3.6684662103652954e-01 7.4322479963302612e-01</leafValues></_>
        <_>
          <internalNodes>
            0 -1 73 1.0651997290551662e-03</internalNodes>
          <leafValues>
            -4.6292731165885925e-01 6.4026254415512085e-01</leafValues></_>
        <_>
          <internalNodes>
            0 -1 188 1.4661309542134404e-03</internalNodes>
          <leafValues>
            5.0783026218414307e-01 -6.2180250883102417e-01</leafValues></_></weakClassifiers></_>
    <!-- stage 25 -->
    <_>
      <maxWeakCount>3</maxWeakCount>
      <stageThreshold>-5.0205814838409424e-01</stageThreshold>
      <weakClassifiers>
        <_>
          <internalNodes>
            0 -1 183 1.7747789388522506e-04</internalNodes>
          <leafValues>
            7.5555557012557983e-01 -6.1818182468414307e-01</leafValues></_>
        <_>
          <internalNodes>
            0 -1 207 -8.4913737373426557e-04</internalNodes>
          <leafValues>
            9.6092647314071655e-01 -5.2356624603271484e-01</leafValues></_>
        <_>
          <internalNodes>
            0 -1 54 3.2400930649600923e-05</internalNodes>
          <leafValues>
            -7.0331662893295288e-01 6.3968992233276367e-01</leafValues></_></weakClassifiers></_>
    <!-- stage 26 -->
    <_>
      <maxWeakCount>5</maxWeakCount>
      <stageThreshold>-5.7506024837493896e-01</stageThreshold>
      <weakClassifiers>
        <_>
          <internalNodes>
            0 -1 149 2.4523633328499272e-05</internalNodes>
          <leafValues>
            -4.0845069289207458e-01 1.</leafValues></_>
        <_>
          <internalNodes>
            0 -1 196 3.5810581175610423e-04</internalNodes>
          <leafValues>
            6.3657134771347046e-01 -6.7432028055191040e-01</leafValues></_>
        <_>
          <internalNodes>
            0 -1 201 1.5204500232357532e-04</internalNodes>
          <leafValues>
            6.5154004096984863e-01 -5.4041582345962524e-01</leafValues></_>
        <_>
          <internalNodes>
            0 -1 173 -4.7167460434138775e-04</internalNodes>
          <leafValues>
            5.3891915082931519e-01 -8.1053310632705688e-01</leafValues></_>
        <_>
          <internalNodes>
            0 -1 18 -3.9172962715383619e-05</internalNodes>
          <leafValues>
            -5.6649410724639893e-01 6.6670382022857666e-01</leafValues></_></weakClassifiers></_>
    <!-- stage 27 -->
    <_>
      <maxWeakCount>3</maxWeakCount>
      <stageThreshold>-3.4432896971702576e-01</stageThreshold>
      <weakClassifiers>
        <_>
          <internalNodes>
            0 -1 158 -1.4517426025122404e-03</internalNodes>
          <leafValues>
            1. -5.6250000000000000e-01</leafValues></_>
        <_>
          <internalNodes>
            0 -1 130 -4.8646732466295362e-04</internalNodes>
          <leafValues>
            1. -3.2480776309967041e-01</leafValues></_>
        <_>
          <internalNodes>
            0 -1 26 -2.1339862723834813e-04</internalNodes>
          <leafValues>
            -7.8182893991470337e-01 5.5642414093017578e-01</leafValues></_></weakClassifiers></_>
    <!-- stage 28 -->
    <_>
      <maxWeakCount>4</maxWeakCount>
      <stageThreshold>-4.5278811454772949e-01</stageThreshold>
      <weakClassifiers>
        <_>
          <internalNodes>
            0 -1 166 -3.7380483263405040e-05</internalNodes>
          <leafValues>
            1. -5.5038762092590332e-01</leafValues></_>
        <_>
          <internalNodes>
            0 -1 140 -8.4314422565512359e-05</internalNodes>
          <leafValues>
            9.5478475093841553e-01 -3.6099919676780701e-01</leafValues></_>
        <_>
          <internalNodes>
            0 -1 37 -1.0301415022695437e-04</internalNodes>
          <leafValues>
            9.5935958623886108e-01 -3.8403996825218201e-01</leafValues></_>
        <_>
          <internalNodes>
            0 -1 46 7.8958988189697266e-02</internalNodes>
          <leafValues>
            -5.0076097249984741e-01 8.6994642019271851e-01</leafValues></_></weakClassifiers></_>
    <!-- stage 29 -->
    <_>
      <maxWeakCount>6</maxWeakCount>
      <stageThreshold>-6.1766952276229858e-01</stageThreshold>
      <weakClassifiers>
        <_>
          <internalNodes>
            0 -1 190 -3.0050168788875453e-05</internalNodes>
          <leafValues>
            7.2413790225982666e-01 -5.5752211809158325e-01</leafValues></_>
        <_>
          <internalNodes>
            0 -1 84 -5.6540020741522312e-03</internalNodes>
          <leafValues>
            9.7609263658523560e-01 -3.9056551456451416e-01</leafValues></_>
        <_>
          <internalNodes>
            0 -1 141 -1.4708589296787977e-03</internalNodes>
          <leafValues>
            9.2759907245635986e-01 -3.3949917554855347e-01</leafValues></_>
        <_>
          <internalNodes>
            0 -1 182 -2.9806134989485145e-04</internalNodes>
          <leafValues>
            6.7371958494186401e-01 -5.0818222761154175e-01</leafValues></_>
        <_>
          <internalNodes>
            0 -1 112 -5.9489727020263672e-02</internalNodes>
          <leafValues>
            -5.2732264995574951e-01 6.9152092933654785e-01</leafValues></_>
        <_>
          <internalNodes>
            0 -1 134 1.2927129864692688e-03</internalNodes>
          <leafValues>
            5.3970944881439209e-01 -7.4357783794403076e-01</leafValues></_></weakClassifiers></_>
    <!-- stage 30 -->
    <_>
      <maxWeakCount>5</maxWeakCount>
      <stageThreshold>-1.0886847972869873e+00</stageThreshold>
      <weakClassifiers>
        <_>
          <internalNodes>
            0 -1 12 -8.9354609372094274e-05</internalNodes>
          <leafValues>
            7.4358975887298584e-01 -4.7540983557701111e-01</leafValues></_>
        <_>
          <internalNodes>
            0 -1 6 5.0991423428058624e-02</internalNodes>
          <leafValues>
            -5.1574367284774780e-01 7.6869136095046997e-01</leafValues></_>
        <_>
          <internalNodes>
            0 -1 191 -3.1385954935103655e-04</internalNodes>
          <leafValues>
            -5.1631295680999756e-01 7.3367226123809814e-01</leafValues></_>
        <_>
          <internalNodes>
            0 -1 94 -3.3847999293357134e-04</internalNodes>
          <leafValues>
            7.9096728563308716e-01 -5.5532866716384888e-01</leafValues></_>
        <_>
          <internalNodes>
            0 -1 75 -8.6369141936302185e-03</internalNodes>
          <leafValues>
            8.3845084905624390e-01 -3.7218555808067322e-01</leafValues></_></weakClassifiers></_>
    <!-- stage 31 -->
    <_>
      <maxWeakCount>4</maxWeakCount>
      <stageThreshold>-9.2599481344223022e-02</stageThreshold>
      <weakClassifiers>
        <_>
          <internalNodes>
            0 -1 164 -2.3191273212432861e-03</internalNodes>
          <leafValues>
            -4.6456691622734070e-01 8.0821919441223145e-01</leafValues></_>
        <_>
          <internalNodes>
            0 -1 146 3.2466086558997631e-03</internalNodes>
          <leafValues>
            5.7901757955551147e-01 -7.7666962146759033e-01</leafValues></_>
        <_>
          <internalNodes>
            0 -1 68 -3.0401948606595397e-04</internalNodes>
          <leafValues>
            -6.2494909763336182e-01 6.7689746618270874e-01</leafValues></_>
        <_>
          <internalNodes>
            0 -1 199 -1.9160477677360177e-04</internalNodes>
          <leafValues>
            -8.5488712787628174e-01 5.6218248605728149e-01</leafValues></_></weakClassifiers></_>
    <!-- stage 32 -->
    <_>
      <maxWeakCount>4</maxWeakCount>
      <stageThreshold>-4.9453955888748169e-01</stageThreshold>
      <weakClassifiers>
        <_>
          <internalNodes>
            0 -1 121 -1.9856528379023075e-03</internalNodes>
          <leafValues>
            9.6923077106475830e-01 -4.6666666865348816e-01</leafValues></_>
        <_>
          <internalNodes>
            0 -1 202 -3.6432235501706600e-03</internalNodes>
          <leafValues>
            1. -3.1912592053413391e-01</leafValues></_>
        <_>
          <internalNodes>
            0 -1 90 7.2533474303781986e-04</internalNodes>
          <leafValues>
            -3.3667919039726257e-01 1.</leafValues></_>
        <_>
          <internalNodes>
            0 -1 77 -1.0062630462925881e-04</internalNodes>
          <leafValues>
            -5.6332600116729736e-01 6.2793219089508057e-01</leafValues></_></weakClassifiers></_>
    <!-- stage 33 -->
    <_>
      <maxWeakCount>3</maxWeakCount>
      <stageThreshold>-1.3353623449802399e-01</stageThreshold>
      <weakClassifiers>
        <_>
          <internalNodes>
            0 -1 72 1.9275257363915443e-03</internalNodes>
          <leafValues>
            -5.2459013462066650e-01 8.2051283121109009e-01</leafValues></_>
        <_>
          <internalNodes>
            0 -1 172 -2.1609694522339851e-04</internalNodes>
          <leafValues>
            1. -3.3437564969062805e-01</leafValues></_>
        <_>
          <internalNodes>
            0 -1 57 3.7485882639884949e-03</internalNodes>
          <leafValues>
            -6.0894608497619629e-01 7.3880845308303833e-01</leafValues></_></weakClassifiers></_>
    <!-- stage 34 -->
    <_>
      <maxWeakCount>4</maxWeakCount>
      <stageThreshold>-2.3050259053707123e-01</stageThreshold>
      <weakClassifiers>
        <_>
          <internalNodes>
            0 -1 95 5.8386332966620103e-05</internalNodes>
          <leafValues>
            -4.5985400676727295e-01 1.</leafValues></_>
        <_>
          <internalNodes>
            0 -1 100 3.5246121697127819e-03</internalNodes>
          <leafValues>
            1. -3.5890030860900879e-01</leafValues></_>
        <_>
          <internalNodes>
            0 -1 91 1.1646223720163107e-04</internalNodes>
          <leafValues>
            9.7679680585861206e-01 -3.9214435219764709e-01</leafValues></_>
        <_>
          <internalNodes>
            0 -1 103 -4.0628090500831604e-03</internalNodes>
          <leafValues>
            9.8039609193801880e-01 -3.6595812439918518e-01</leafValues></_></weakClassifiers></_>
    <!-- stage 35 -->
    <_>
      <maxWeakCount>4</maxWeakCount>
      <stageThreshold>-8.1014692783355713e-01</stageThreshold>
      <weakClassifiers>
        <_>
          <internalNodes>
            0 -1 101 1.2540647760033607e-02</internalNodes>
          <leafValues>
            9.7368419170379639e-01 -5.9677422046661377e-01</leafValues></_>
        <_>
          <internalNodes>
            0 -1 40 -1.5477340202778578e-03</internalNodes>
          <leafValues>
            8.4576022624969482e-01 -4.3007120490074158e-01</leafValues></_>
        <_>
          <internalNodes>
            0 -1 117 1.9920982420444489e-02</internalNodes>
          <leafValues>
            -4.8796454071998596e-01 7.8362828493118286e-01</leafValues></_>
        <_>
          <internalNodes>
            0 -1 200 -2.3615136160515249e-04</internalNodes>
          <leafValues>
            7.8158318996429443e-01 -5.7116842269897461e-01</leafValues></_></weakClassifiers></_>
    <!-- stage 36 -->
    <_>
      <maxWeakCount>3</maxWeakCount>
      <stageThreshold>-9.2690534889698029e-02</stageThreshold>
      <weakClassifiers>
        <_>
          <internalNodes>
            0 -1 81 1.2918622232973576e-03</internalNodes>
          <leafValues>
            -5.0387597084045410e-01 9.1549295186996460e-01</leafValues></_>
        <_>
          <internalNodes>
            0 -1 142 -1.9889674149453640e-03</internalNodes>
          <leafValues>
            8.8346880674362183e-01 -4.8628053069114685e-01</leafValues></_>
        <_>
          <internalNodes>
            0 -1 119 -6.4604508224874735e-04</internalNodes>
          <leafValues>
            -4.2626866698265076e-01 8.9746594429016113e-01</leafValues></_></weakClassifiers></_>
    <!-- stage 37 -->
    <_>
      <maxWeakCount>3</maxWeakCount>
      <stageThreshold>-2.2854572162032127e-03</stageThreshold>
      <weakClassifiers>
        <_>
          <internalNodes>
            0 -1 132 -3.2869704067707062e-02</internalNodes>
          <leafValues>
            -4.7058823704719543e-01 1.</leafValues></_>
        <_>
          <internalNodes>
            0 -1 82 -2.7693875599652529e-03</internalNodes>
          <leafValues>
            9.7807705402374268e-01 -4.2721050977706909e-01</leafValues></_>
        <_>
          <internalNodes>
            0 -1 185 -3.7693104241043329e-04</internalNodes>
          <leafValues>
            -3.7912124395370483e-01 8.9551329612731934e-01</leafValues></_></weakClassifiers></_>
    <!-- stage 38 -->
    <_>
      <maxWeakCount>5</maxWeakCount>
      <stageThreshold>-7.4637070298194885e-02</stageThreshold>
      <weakClassifiers>
        <_>
          <internalNodes>
            0 -1 50 1.6982137458398938e-03</internalNodes>
          <leafValues>
            -3.6986300349235535e-01 1.</leafValues></_>
        <_>
          <internalNodes>
            0 -1 76 -1.3793942343909293e-04</internalNodes>
          <leafValues>
            -4.3344664573669434e-01 8.3467775583267212e-01</leafValues></_>
        <_>
          <internalNodes>
            0 -1 97 -1.6025253571569920e-03</internalNodes>
          <leafValues>
            -4.6800816059112549e-01 8.1061094999313354e-01</leafValues></_>
        <_>
          <internalNodes>
            0 -1 153 5.4176116827875376e-04</internalNodes>
          <leafValues>
            5.0543671846389771e-01 -9.0036320686340332e-01</leafValues></_>
        <_>
          <internalNodes>
            0 -1 181 5.7024084526346996e-05</internalNodes>
          <leafValues>
            -5.4094344377517700e-01 8.6040043830871582e-01</leafValues></_></weakClassifiers></_>
    <!-- stage 39 -->
    <_>
      <maxWeakCount>4</maxWeakCount>
      <stageThreshold>-1.0659956932067871e+00</stageThreshold>
      <weakClassifiers>
        <_>
          <internalNodes>
            0 -1 109 -4.6288472367450595e-04</internalNodes>
          <leafValues>
            -4.8148149251937866e-01 1.</leafValues></_>
        <_>
          <internalNodes>
            0 -1 44 -2.1432401263155043e-04</internalNodes>
          <leafValues>
            -8.5504412651062012e-01 5.5384999513626099e-01</leafValues></_>
        <_>
          <internalNodes>
            0 -1 131 -1.2475299648940563e-02</internalNodes>
          <leafValues>
            -6.6282975673675537e-01 7.3788344860076904e-01</leafValues></_>
        <_>
          <internalNodes>
            0 -1 16 -9.9205272272229195e-04</internalNodes>
          <leafValues>
            1. -4.7553446888923645e-01</leafValues></_></weakClassifiers></_>
    <!-- stage 40 -->
    <_>
      <maxWeakCount>5</maxWeakCount>
      <stageThreshold>-5.8609282970428467e-01</stageThreshold>
      <weakClassifiers>
        <_>
          <internalNodes>
            0 -1 63 -3.0208546668291092e-03</internalNodes>
          <leafValues>
            1. -3.7931033968925476e-01</leafValues></_>
        <_>
          <internalNodes>
            0 -1 69 3.8218102417886257e-03</internalNodes>
          <leafValues>
            -2.7633675932884216e-01 1.</leafValues></_>
        <_>
          <internalNodes>
            0 -1 80 8.5092661902308464e-04</internalNodes>
          <leafValues>
            -3.3269360661506653e-01 1.</leafValues></_>
        <_>
          <internalNodes>
            0 -1 127 2.1011699573136866e-05</internalNodes>
          <leafValues>
            -3.5816586017608643e-01 8.4842729568481445e-01</leafValues></_>
        <_>
          <internalNodes>
            0 -1 171 3.0033092480152845e-04</internalNodes>
          <leafValues>
            8.3236026763916016e-01 -4.4617941975593567e-01</leafValues></_></weakClassifiers></_>
    <!-- stage 41 -->
    <_>
      <maxWeakCount>5</maxWeakCount>
      <stageThreshold>-3.3338520675897598e-02</stageThreshold>
      <weakClassifiers>
        <_>
          <internalNodes>
            0 -1 66 -3.0429828257183544e-05</internalNodes>
          <leafValues>
            9.6875000000000000e-01 -4.5588234066963196e-01</leafValues></_>
        <_>
          <internalNodes>
            0 -1 30 1.5364827588200569e-02</internalNodes>
          <leafValues>
            -4.4854399561882019e-01 8.9736998081207275e-01</leafValues></_>
        <_>
          <internalNodes>
            0 -1 165 -1.2780381366610527e-02</internalNodes>
          <leafValues>
            1. -3.0562871694564819e-01</leafValues></_>
        <_>
          <internalNodes>
            0 -1 27 1.8799966201186180e-03</internalNodes>
          <leafValues>
            4.7574055194854736e-01 -9.5512896776199341e-01</leafValues></_>
        <_>
          <internalNodes>
            0 -1 150 -2.4400424081250094e-05</internalNodes>
          <leafValues>
            8.4622716903686523e-01 -5.1969712972640991e-01</leafValues></_></weakClassifiers></_>
    <!-- stage 42 -->
    <_>
      <maxWeakCount>3</maxWeakCount>
      <stageThreshold>-4.4644790887832642e-01</stageThreshold>
      <weakClassifiers>
        <_>
          <internalNodes>
            0 -1 206 -4.0127238025888801e-04</internalNodes>
          <leafValues>
            9.4666665792465210e-01 -5.6800001859664917e-01</leafValues></_>
        <_>
          <internalNodes>
            0 -1 67 -2.8548732399940491e-02</internalNodes>
          <leafValues>
            9.8007863759994507e-01 -5.0730717182159424e-01</leafValues></_>
        <_>
          <internalNodes>
            0 -1 31 -7.3593862354755402e-02</internalNodes>
          <leafValues>
            6.2885928153991699e-01 -8.4216016530990601e-01</leafValues></_></weakClassifiers></_>
    <!-- stage 43 -->
    <_>
      <maxWeakCount>4</maxWeakCount>
      <stageThreshold>-2.4850562214851379e-01</stageThreshold>
      <weakClassifiers>
        <_>
          <internalNodes>
            0 -1 88 -9.2996131570544094e-05</internalNodes>
          <leafValues>
            1. -3.6986300349235535e-01</leafValues></_>
        <_>
          <internalNodes>
            0 -1 193 2.8575281248777173e-05</internalNodes>
          <leafValues>
            -2.6648402214050293e-01 1.</leafValues></_>
        <_>
          <internalNodes>
            0 -1 210 -4.1205526940757409e-05</internalNodes>
          <leafValues>
            8.5964828729629517e-01 -3.3942133188247681e-01</leafValues></_>
        <_>
          <internalNodes>
            0 -1 70 -1.2790662003681064e-03</internalNodes>
          <leafValues>
            7.7478176355361938e-01 -4.7180685400962830e-01</leafValues></_></weakClassifiers></_>
    <!-- stage 44 -->
    <_>
      <maxWeakCount>4</maxWeakCount>
      <stageThreshold>-1.2527959346771240e+00</stageThreshold>
      <weakClassifiers>
        <_>
          <internalNodes>
            0 -1 24 -1.8872699001803994e-04</internalNodes>
          <leafValues>
            -6.1904764175415039e-01 6.8421053886413574e-01</leafValues></_>
        <_>
          <internalNodes>
            0 -1 28 -1.8769571033772081e-04</internalNodes>
          <leafValues>
            -8.4085625410079956e-01 5.2092760801315308e-01</leafValues></_>
        <_>
          <internalNodes>
            0 -1 194 -4.2840925743803382e-04</internalNodes>
          <leafValues>
            6.6304683685302734e-01 -5.9790074825286865e-01</leafValues></_>
        <_>
          <internalNodes>
            0 -1 111 -3.2680036383680999e-04</internalNodes>
          <leafValues>
            -5.5677521228790283e-01 7.5737696886062622e-01</leafValues></_></weakClassifiers></_>
    <!-- stage 45 -->
    <_>
      <maxWeakCount>4</maxWeakCount>
      <stageThreshold>-1.1971621215343475e-01</stageThreshold>
      <weakClassifiers>
        <_>
          <internalNodes>
            0 -1 33 -2.4311337620019913e-04</internalNodes>
          <leafValues>
            -6.1538463830947876e-01 6.6666668653488159e-01</leafValues></_>
        <_>
          <internalNodes>
            0 -1 209 -2.5746584869921207e-03</internalNodes>
          <leafValues>
            -6.0705131292343140e-01 7.0791810750961304e-01</leafValues></_>
        <_>
          <internalNodes>
            0 -1 195 1.0361723252572119e-04</internalNodes>
          <leafValues>
            7.5202274322509766e-01 -7.2162216901779175e-01</leafValues></_>
        <_>
          <internalNodes>
            0 -1 174 -4.5903644058853388e-04</internalNodes>
          <leafValues>
            6.4060264825820923e-01 -7.7267885208129883e-01</leafValues></_></weakClassifiers></_>
    <!-- stage 46 -->
    <_>
      <maxWeakCount>5</maxWeakCount>
      <stageThreshold>-5.8405798673629761e-01</stageThreshold>
      <weakClassifiers>
        <_>
          <internalNodes>
            0 -1 160 -4.3968058889731765e-04</internalNodes>
          <leafValues>
            -5.3846156597137451e-01 7.5903612375259399e-01</leafValues></_>
        <_>
          <internalNodes>
            0 -1 47 1.2354545760899782e-03</internalNodes>
          <leafValues>
            5.0952416658401489e-01 -8.1642687320709229e-01</leafValues></_>
        <_>
          <internalNodes>
            0 -1 89 -9.7662303596735001e-03</internalNodes>
          <leafValues>
            -6.9864505529403687e-01 6.2130904197692871e-01</leafValues></_>
        <_>
          <internalNodes>
            0 -1 99 1.7756273155100644e-04</internalNodes>
          <leafValues>
            -4.4717478752136230e-01 1.</leafValues></_>
        <_>
          <internalNodes>
            0 -1 152 4.3968058889731765e-04</internalNodes>
          <leafValues>
            6.4304208755493164e-01 -7.2925490140914917e-01</leafValues></_></weakClassifiers></_>
    <!-- stage 47 -->
    <_>
      <maxWeakCount>4</maxWeakCount>
      <stageThreshold>-6.4026147127151489e-01</stageThreshold>
      <weakClassifiers>
        <_>
          <internalNodes>
            0 -1 169 -5.5992146953940392e-03</internalNodes>
          <leafValues>
            1. -3.8888889551162720e-01</leafValues></_>
        <_>
          <internalNodes>
            0 -1 83 1.5762539114803076e-03</internalNodes>
          <leafValues>
            1. -3.2355225086212158e-01</leafValues></_>
        <_>
          <internalNodes>
            0 -1 19 4.6951888361945748e-04</internalNodes>
          <leafValues>
            7.5441974401473999e-01 -5.9708869457244873e-01</leafValues></_>
        <_>
          <internalNodes>
            0 -1 45 9.5581717323511839e-04</internalNodes>
          <leafValues>
            6.6926842927932739e-01 -5.6906414031982422e-01</leafValues></_></weakClassifiers></_>
    <!-- stage 48 -->
    <_>
      <maxWeakCount>4</maxWeakCount>
      <stageThreshold>-3.1886288523674011e-01</stageThreshold>
      <weakClassifiers>
        <_>
          <internalNodes>
            0 -1 128 2.4296352057717741e-04</internalNodes>
          <leafValues>
            -4.2857143282890320e-01 1.</leafValues></_>
        <_>
          <internalNodes>
            0 -1 213 -3.9314009249210358e-02</internalNodes>
          <leafValues>
            -3.0761614441871643e-01 1.</leafValues></_>
        <_>
          <internalNodes>
            0 -1 107 -9.3124337494373322e-02</internalNodes>
          <leafValues>
            -4.2132291197776794e-01 9.5473122596740723e-01</leafValues></_>
        <_>
          <internalNodes>
            0 -1 212 5.3327484056353569e-04</internalNodes>
          <leafValues>
            -4.6896854043006897e-01 8.9524883031845093e-01</leafValues></_></weakClassifiers></_>
    <!-- stage 49 -->
    <_>
      <maxWeakCount>4</maxWeakCount>
      <stageThreshold>-1.8350608646869659e-02</stageThreshold>
      <weakClassifiers>
        <_>
          <internalNodes>
            0 -1 23 3.0018478631973267e-02</internalNodes>
          <leafValues>
            7.2277230024337769e-01 -7.3737370967864990e-01</leafValues></_>
        <_>
          <internalNodes>
            0 -1 35 1.0960625112056732e-01</internalNodes>
          <leafValues>
            7.2021466493606567e-01 -5.7693463563919067e-01</leafValues></_>
        <_>
          <internalNodes>
            0 -1 8 -1.5775163774378598e-04</internalNodes>
          <leafValues>
            -7.4877566099166870e-01 6.6044950485229492e-01</leafValues></_>
        <_>
          <internalNodes>
            0 -1 110 3.0245148809626698e-04</internalNodes>
          <leafValues>
            7.8033202886581421e-01 -6.6164106130599976e-01</leafValues></_></weakClassifiers></_></stages>
  <features>
    <_>
      <rects>
        <_>
          0 0 6 1 -1.</_>
        <_>
          3 0 3 1 2.</_></rects>
      <tilted>0</tilted></_>
    <_>
      <rects>
        <_>
          0 0 3 2 -1.</_>
        <_>
          0 1 3 1 2.</_></rects>
      <tilted>0</tilted></_>
    <_>
      <rects>
        <_>
          0 0 6 22 -1.</_>
        <_>
          3 0 3 22 2.</_></rects>
      <tilted>0</tilted></_>
    <_>
      <rects>
        <_>
          0 0 18 4 -1.</_>
        <_>
          6 0 6 4 2.</_></rects>
      <tilted>0</tilted></_>
    <_>
      <rects>
        <_>
          0 0 16 9 -1.</_>
        <_>
          8 0 8 9 2.</_></rects>
      <tilted>0</tilted></_>
    <_>
      <rects>
        <_>
          0 0 10 20 -1.</_>
        <_>
          0 10 10 10 2.</_></rects>
      <tilted>0</tilted></_>
    <_>
      <rects>
        <_>
          0 0 14 8 -1.</_>
        <_>
          0 4 14 4 2.</_></rects>
      <tilted>0</tilted></_>
    <_>
      <rects>
        <_>
          0 1 18 6 -1.</_>
        <_>
          0 4 18 3 2.</_></rects>
      <tilted>0</tilted></_>
    <_>
      <rects>
        <_>
          0 2 2 2 -1.</_>
        <_>
          1 2 1 2 2.</_></rects>
      <tilted>0</tilted></_>
    <_>
      <rects>
        <_>
          0 3 12 14 -1.</_>
        <_>
          0 3 6 7 2.</_>
        <_>
          6 10 6 7 2.</_></rects>
      <tilted>0</tilted></_>
    <_>
      <rects>
        <_>
          0 4 1 6 -1.</_>
        <_>
          0 6 1 2 2.</_></rects>
      <tilted>0</tilted></_>
    <_>
      <rects>
        <_>
          0 4 10 15 -1.</_>
        <_>
          5 4 5 15 2.</_></rects>
      <tilted>0</tilted></_>
    <_>
      <rects>
        <_>
          0 5 1 10 -1.</_>
        <_>
          0 10 1 5 2.</_></rects>
      <tilted>0</tilted></_>
    <_>
      <rects>
        <_>
          0 6 1 18 -1.</_>
        <_>
          0 15 1 9 2.</_></rects>
      <tilted>0</tilted></_>
    <_>
      <rects>
        <_>
          0 7 12 7 -1.</_>
        <_>
          6 7 6 7 2.</_></rects>
      <tilted>0</tilted></_>
    <_>
      <rects>
        <_>
          0 7 14 8 -1.</_>
        <_>
          0 7 7 4 2.</_>
        <_>
          7 11 7 4 2.</_></rects>
      <tilted>0</tilted></_>
    <_>
      <rects>
        <_>
          0 9 22 2 -1.</_>
        <_>
          0 9 11 1 2.</_>
        <_>
          11 10 11 1 2.</_></rects>
      <tilted>0</tilted></_>
    <_>
      <rects>
        <_>
          0 10 2 11 -1.</_>
        <_>
          1 10 1 11 2.</_></rects>
      <tilted>0</tilted></_>
    <_>
      <rects>
        <_>
          0 10 4 4 -1.</_>
        <_>
          0 10 2 2 2.</_>
        <_>
          2 12 2 2 2.</_></rects>
      <tilted>0</tilted></_>
    <_>
      <rects>
        <_>
          0 10 3 2 -1.</_>
        <_>
          0 11 3 1 2.</_></rects>
      <tilted>0</tilted></_>
    <_>
      <rects>
        <_>
          0 10 18 4 -1.</_>
        <_>
          9 10 9 4 2.</_></rects>
      <tilted>0</tilted></_>
    <_>
      <rects>
        <_>
          0 10 14 12 -1.</_>
        <_>
          0 16 14 6 2.</_></rects>
      <tilted>0</tilted></_>
    <_>
      <rects>
        <_>
          0 11 18 1 -1.</_>
        <_>
          9 11 9 1 2.</_></rects>
      <tilted>0</tilted></_>
    <_>
      <rects>
        <_>
          0 11 23 8 -1.</_>
        <_>
          0 15 23 4 2.</_></rects>
      <tilted>0</tilted></_>
    <_>
      <rects>
        <_>
          0 13 2 4 -1.</_>
        <_>
          0 13 1 2 2.</_>
        <_>
          1 15 1 2 2.</_></rects>
      <tilted>0</tilted></_>
    <_>
      <rects>
        <_>
          0 16 6 2 -1.</_>
        <_>
          3 16 3 2 2.</_></rects>
      <tilted>0</tilted></_>
    <_>
      <rects>
        <_>
          0 17 2 7 -1.</_>
        <_>
          1 17 1 7 2.</_></rects>
      <tilted>0</tilted></_>
    <_>
      <rects>
        <_>
          0 21 2 3 -1.</_>
        <_>
          1 21 1 3 2.</_></rects>
      <tilted>0</tilted></_>
    <_>
      <rects>
        <_>
          0 22 2 2 -1.</_>
        <_>
          1 22 1 2 2.</_></rects>
      <tilted>0</tilted></_>
    <_>
      <rects>
        <_>
          1 0 3 1 -1.</_>
        <_>
          2 0 1 1 2.</_></rects>
      <tilted>0</tilted></_>
    <_>
      <rects>
        <_>
          1 0 4 20 -1.</_>
        <_>
          3 0 2 20 2.</_></rects>
      <tilted>0</tilted></_>
    <_>
      <rects>
        <_>
          1 0 9 4 -1.</_>
        <_>
          4 0 3 4 2.</_></rects>
      <tilted>0</tilted></_>
    <_>
      <rects>
        <_>
          1 1 1 6 -1.</_>
        <_>
          1 3 1 2 2.</_></rects>
      <tilted>0</tilted></_>
    <_>
      <rects>
        <_>
          1 1 2 4 -1.</_>
        <_>
          1 1 1 2 2.</_>
        <_>
          2 3 1 2 2.</_></rects>
      <tilted>0</tilted></_>
    <_>
      <rects>
        <_>
          1 1 18 4 -1.</_>
        <_>
          1 3 18 2 2.</_></rects>
      <tilted>0</tilted></_>
    <_>
      <rects>
        <_>
          1 1 23 18 -1.</_>
        <_>
          1 10 23 9 2.</_></rects>
      <tilted>0</tilted></_>
    <_>
      <rects>
        <_>
          1 4 8 13 -1.</_>
        <_>
          5 4 4 13 2.</_></rects>
      <tilted>0</tilted></_>
    <_>
      <rects>
        <_>
          1 4 14 2 -1.</_>
        <_>
          1 4 7 1 2.</_>
        <_>
          8 5 7 1 2.</_></rects>
      <tilted>0</tilted></_>
    <_>
      <rects>
        <_>
          1 6 14 2 -1.</_>
        <_>
          1 6 7 1 2.</_>
        <_>
          8 7 7 1 2.</_></rects>
      <tilted>0</tilted></_>
    <_>
      <rects>
        <_>
          1 7 2 13 -1.</_>
        <_>
          2 7 1 13 2.</_></rects>
      <tilted>0</tilted></_>
    <_>
      <rects>
        <_>
          1 12 3 12 -1.</_>
        <_>
          1 18 3 6 2.</_></rects>
      <tilted>0</tilted></_>
    <_>
      <rects>
        <_>
          1 17 3 4 -1.</_>
        <_>
          1 19 3 2 2.</_></rects>
      <tilted>0</tilted></_>
    <_>
      <rects>
        <_>
          1 20 2 4 -1.</_>
        <_>
          1 20 1 2 2.</_>
        <_>
          2 22 1 2 2.</_></rects>
      <tilted>0</tilted></_>
    <_>
      <rects>
        <_>
          1 20 22 4 -1.</_>
        <_>
          1 22 22 2 2.</_></rects>
      <tilted>0</tilted></_>
    <_>
      <rects>
        <_>
          2 0 2 2 -1.</_>
        <_>
          3 0 1 2 2.</_></rects>
      <tilted>0</tilted></_>
    <_>
      <rects>
        <_>
          2 0 2 6 -1.</_>
        <_>
          2 0 1 3 2.</_>
        <_>
          3 3 1 3 2.</_></rects>
      <tilted>0</tilted></_>
    <_>
      <rects>
        <_>
          2 0 10 23 -1.</_>
        <_>
          7 0 5 23 2.</_></rects>
      <tilted>0</tilted></_>
    <_>
      <rects>
        <_>
          2 1 1 2 -1.</_>
        <_>
          2 2 1 1 2.</_></rects>
      <tilted>0</tilted></_>
    <_>
      <rects>
        <_>
          2 1 4 1 -1.</_>
        <_>
          4 1 2 1 2.</_></rects>
      <tilted>0</tilted></_>
    <_>
      <rects>
        <_>
          2 1 7 2 -1.</_>
        <_>
          2 2 7 1 2.</_></rects>
      <tilted>0</tilted></_>
    <_>
      <rects>
        <_>
          2 4 10 4 -1.</_>
        <_>
          2 4 5 2 2.</_>
        <_>
          7 6 5 2 2.</_></rects>
      <tilted>0</tilted></_>
    <_>
      <rects>
        <_>
          2 4 16 6 -1.</_>
        <_>
          2 4 8 3 2.</_>
        <_>
          10 7 8 3 2.</_></rects>
      <tilted>0</tilted></_>
    <_>
      <rects>
        <_>
          2 15 18 2 -1.</_>
        <_>
          2 16 18 1 2.</_></rects>
      <tilted>0</tilted></_>
    <_>
      <rects>
        <_>
          3 0 2 6 -1.</_>
        <_>
          4 0 1 6 2.</_></rects>
      <tilted>0</tilted></_>
    <_>
      <rects>
        <_>
          3 0 2 8 -1.</_>
        <_>
          4 0 1 8 2.</_></rects>
      <tilted>0</tilted></_>
    <_>
      <rects>
        <_>
          3 0 6 1 -1.</_>
        <_>
          6 0 3 1 2.</_></rects>
      <tilted>0</tilted></_>
    <_>
      <rects>
        <_>
          3 0 8 6 -1.</_>
        <_>
          3 3 8 3 2.</_></rects>
      <tilted>0</tilted></_>
    <_>
      <rects>
        <_>
          3 1 2 23 -1.</_>
        <_>
          4 1 1 23 2.</_></rects>
      <tilted>0</tilted></_>
    <_>
      <rects>
        <_>
          3 3 2 6 -1.</_>
        <_>
          4 3 1 6 2.</_></rects>
      <tilted>0</tilted></_>
    <_>
      <rects>
        <_>
          3 3 21 4 -1.</_>
        <_>
          3 5 21 2 2.</_></rects>
      <tilted>0</tilted></_>
    <_>
      <rects>
        <_>
          3 6 6 2 -1.</_>
        <_>
          3 6 3 1 2.</_>
        <_>
          6 7 3 1 2.</_></rects>
      <tilted>0</tilted></_>
    <_>
      <rects>
        <_>
          3 9 2 2 -1.</_>
        <_>
          3 9 1 1 2.</_>
        <_>
          4 10 1 1 2.</_></rects>
      <tilted>0</tilted></_>
    <_>
      <rects>
        <_>
          3 12 5 2 -1.</_>
        <_>
          3 13 5 1 2.</_></rects>
      <tilted>0</tilted></_>
    <_>
      <rects>
        <_>
          3 16 1 8 -1.</_>
        <_>
          3 20 1 4 2.</_></rects>
      <tilted>0</tilted></_>
    <_>
      <rects>
        <_>
          3 17 4 4 -1.</_>
        <_>
          3 17 2 2 2.</_>
        <_>
          5 19 2 2 2.</_></rects>
      <tilted>0</tilted></_>
    <_>
      <rects>
        <_>
          3 18 2 2 -1.</_>
        <_>
          3 18 1 1 2.</_>
        <_>
          4 19 1 1 2.</_></rects>
      <tilted>0</tilted></_>
    <_>
      <rects>
        <_>
          3 20 2 2 -1.</_>
        <_>
          3 21 2 1 2.</_></rects>
      <tilted>0</tilted></_>
    <_>
      <rects>
        <_>
          3 22 6 2 -1.</_>
        <_>
          5 22 2 2 2.</_></rects>
      <tilted>0</tilted></_>
    <_>
      <rects>
        <_>
          4 1 4 2 -1.</_>
        <_>
          4 1 2 1 2.</_>
        <_>
          6 2 2 1 2.</_></rects>
      <tilted>0</tilted></_>
    <_>
      <rects>
        <_>
          4 3 2 11 -1.</_>
        <_>
          5 3 1 11 2.</_></rects>
      <tilted>0</tilted></_>
    <_>
      <rects>
        <_>
          4 4 2 20 -1.</_>
        <_>
          4 4 1 10 2.</_>
        <_>
          5 14 1 10 2.</_></rects>
      <tilted>0</tilted></_>
    <_>
      <rects>
        <_>
          4 4 8 8 -1.</_>
        <_>
          8 4 4 8 2.</_></rects>
      <tilted>0</tilted></_>
    <_>
      <rects>
        <_>
          4 4 12 1 -1.</_>
        <_>
          10 4 6 1 2.</_></rects>
      <tilted>0</tilted></_>
    <_>
      <rects>
        <_>
          4 5 8 4 -1.</_>
        <_>
          4 5 4 2 2.</_>
        <_>
          8 7 4 2 2.</_></rects>
      <tilted>0</tilted></_>
    <_>
      <rects>
        <_>
          4 7 2 11 -1.</_>
        <_>
          5 7 1 11 2.</_></rects>
      <tilted>0</tilted></_>
    <_>
      <rects>
        <_>
          4 14 7 4 -1.</_>
        <_>
          4 16 7 2 2.</_></rects>
      <tilted>0</tilted></_>
    <_>
      <rects>
        <_>
          4 18 2 4 -1.</_>
        <_>
          4 18 1 2 2.</_>
        <_>
          5 20 1 2 2.</_></rects>
      <tilted>0</tilted></_>
    <_>
      <rects>
        <_>
          4 23 2 1 -1.</_>
        <_>
          5 23 1 1 2.</_></rects>
      <tilted>0</tilted></_>
    <_>
      <rects>
        <_>
          5 0 10 2 -1.</_>
        <_>
          5 0 5 1 2.</_>
        <_>
          10 1 5 1 2.</_></rects>
      <tilted>0</tilted></_>
    <_>
      <rects>
        <_>
          5 2 4 6 -1.</_>
        <_>
          5 5 4 3 2.</_></rects>
      <tilted>0</tilted></_>
    <_>
      <rects>
        <_>
          5 8 2 10 -1.</_>
        <_>
          5 8 1 5 2.</_>
        <_>
          6 13 1 5 2.</_></rects>
      <tilted>0</tilted></_>
    <_>
      <rects>
        <_>
          5 8 2 10 -1.</_>
        <_>
          6 8 1 10 2.</_></rects>
      <tilted>0</tilted></_>
    <_>
      <rects>
        <_>
          5 11 10 4 -1.</_>
        <_>
          5 11 5 2 2.</_>
        <_>
          10 13 5 2 2.</_></rects>
      <tilted>0</tilted></_>
    <_>
      <rects>
        <_>
          5 12 6 2 -1.</_>
        <_>
          8 12 3 2 2.</_></rects>
      <tilted>0</tilted></_>
    <_>
      <rects>
        <_>
          5 12 10 6 -1.</_>
        <_>
          5 12 5 3 2.</_>
        <_>
          10 15 5 3 2.</_></rects>
      <tilted>0</tilted></_>
    <_>
      <rects>
        <_>
          5 15 4 2 -1.</_>
        <_>
          5 16 4 1 2.</_></rects>
      <tilted>0</tilted></_>
    <_>
      <rects>
        <_>
          6 0 4 1 -1.</_>
        <_>
          8 0 2 1 2.</_></rects>
      <tilted>0</tilted></_>
    <_>
      <rects>
        <_>
          6 0 6 10 -1.</_>
        <_>
          9 0 3 10 2.</_></rects>
      <tilted>0</tilted></_>
    <_>
      <rects>
        <_>
          6 2 2 4 -1.</_>
        <_>
          6 2 1 2 2.</_>
        <_>
          7 4 1 2 2.</_></rects>
      <tilted>0</tilted></_>
    <_>
      <rects>
        <_>
          6 3 10 6 -1.</_>
        <_>
          6 6 10 3 2.</_></rects>
      <tilted>0</tilted></_>
    <_>
      <rects>
        <_>
          6 6 4 12 -1.</_>
        <_>
          6 6 2 6 2.</_>
        <_>
          8 12 2 6 2.</_></rects>
      <tilted>0</tilted></_>
    <_>
      <rects>
        <_>
          6 8 14 8 -1.</_>
        <_>
          6 8 7 4 2.</_>
        <_>
          13 12 7 4 2.</_></rects>
      <tilted>0</tilted></_>
    <_>
      <rects>
        <_>
          6 9 2 2 -1.</_>
        <_>
          7 9 1 2 2.</_></rects>
      <tilted>0</tilted></_>
    <_>
      <rects>
        <_>
          6 11 6 6 -1.</_>
        <_>
          6 11 3 3 2.</_>
        <_>
          9 14 3 3 2.</_></rects>
      <tilted>0</tilted></_>
    <_>
      <rects>
        <_>
          6 12 8 6 -1.</_>
        <_>
          6 12 4 3 2.</_>
        <_>
          10 15 4 3 2.</_></rects>
      <tilted>0</tilted></_>
    <_>
      <rects>
        <_>
          7 0 1 2 -1.</_>
        <_>
          7 1 1 1 2.</_></rects>
      <tilted>0</tilted></_>
    <_>
      <rects>
        <_>
          7 0 9 12 -1.</_>
        <_>
          10 0 3 12 2.</_></rects>
      <tilted>0</tilted></_>
    <_>
      <rects>
        <_>
          7 7 12 4 -1.</_>
        <_>
          7 7 6 2 2.</_>
        <_>
          13 9 6 2 2.</_></rects>
      <tilted>0</tilted></_>
    <_>
      <rects>
        <_>
          7 10 1 2 -1.</_>
        <_>
          7 11 1 1 2.</_></rects>
      <tilted>0</tilted></_>
    <_>
      <rects>
        <_>
          7 10 6 2 -1.</_>
        <_>
          7 10 3 1 2.</_>
        <_>
          10 11 3 1 2.</_></rects>
      <tilted>0</tilted></_>
    <_>
      <rects>
        <_>
          7 12 4 12 -1.</_>
        <_>
          9 12 2 12 2.</_></rects>
      <tilted>0</tilted></_>
    <_>
      <rects>
        <_>
          7 13 8 6 -1.</_>
        <_>
          11 13 4 6 2.</_></rects>
      <tilted>0</tilted></_>
    <_>
      <rects>
        <_>
          8 2 13 4 -1.</_>
        <_>
          8 4 13 2 2.</_></rects>
      <tilted>0</tilted></_>
    <_>
      <rects>
        <_>
          8 5 14 4 -1.</_>
        <_>
          8 5 7 2 2.</_>
        <_>
          15 7 7 2 2.</_></rects>
      <tilted>0</tilted></_>
    <_>
      <rects>
        <_>
          8 5 12 18 -1.</_>
        <_>
          8 14 12 9 2.</_></rects>
      <tilted>0</tilted></_>
    <_>
      <rects>
        <_>
          8 6 16 16 -1.</_>
        <_>
          16 6 8 16 2.</_></rects>
      <tilted>0</tilted></_>
    <_>
      <rects>
        <_>
          8 9 6 2 -1.</_>
        <_>
          8 10 6 1 2.</_></rects>
      <tilted>0</tilted></_>
    <_>
      <rects>
        <_>
          8 9 11 12 -1.</_>
        <_>
          8 15 11 6 2.</_></rects>
      <tilted>0</tilted></_>
    <_>
      <rects>
        <_>
          8 18 12 4 -1.</_>
        <_>
          8 20 12 2 2.</_></rects>
      <tilted>0</tilted></_>
    <_>
      <rects>
        <_>
          8 20 14 2 -1.</_>
        <_>
          8 20 7 1 2.</_>
        <_>
          15 21 7 1 2.</_></rects>
      <tilted>0</tilted></_>
    <_>
      <rects>
        <_>
          8 22 4 2 -1.</_>
        <_>
          10 22 2 2 2.</_></rects>
      <tilted>0</tilted></_>
    <_>
      <rects>
        <_>
          9 0 2 6 -1.</_>
        <_>
          10 0 1 6 2.</_></rects>
      <tilted>0</tilted></_>
    <_>
      <rects>
        <_>
          9 0 9 2 -1.</_>
        <_>
          12 0 3 2 2.</_></rects>
      <tilted>0</tilted></_>
    <_>
      <rects>
        <_>
          9 0 4 2 -1.</_>
        <_>
          9 1 4 1 2.</_></rects>
      <tilted>0</tilted></_>
    <_>
      <rects>
        <_>
          9 11 1 10 -1.</_>
        <_>
          9 16 1 5 2.</_></rects>
      <tilted>0</tilted></_>
    <_>
      <rects>
        <_>
          9 12 10 12 -1.</_>
        <_>
          9 18 10 6 2.</_></rects>
      <tilted>0</tilted></_>
    <_>
      <rects>
        <_>
          9 14 4 4 -1.</_>
        <_>
          9 16 4 2 2.</_></rects>
      <tilted>0</tilted></_>
    <_>
      <rects>
        <_>
          10 0 6 6 -1.</_>
        <_>
          10 3 6 3 2.</_></rects>
      <tilted>0</tilted></_>
    <_>
      <rects>
        <_>
          10 3 8 4 -1.</_>
        <_>
          10 3 4 2 2.</_>
        <_>
          14 5 4 2 2.</_></rects>
      <tilted>0</tilted></_>
    <_>
      <rects>
        <_>
          10 4 4 8 -1.</_>
        <_>
          12 4 2 8 2.</_></rects>
      <tilted>0</tilted></_>
    <_>
      <rects>
        <_>
          10 21 1 2 -1.</_>
        <_>
          10 22 1 1 2.</_></rects>
      <tilted>0</tilted></_>
    <_>
      <rects>
        <_>
          10 22 12 2 -1.</_>
        <_>
          10 23 12 1 2.</_></rects>
      <tilted>0</tilted></_>
    <_>
      <rects>
        <_>
          11 1 8 8 -1.</_>
        <_>
          15 1 4 8 2.</_></rects>
      <tilted>0</tilted></_>
    <_>
      <rects>
        <_>
          11 5 6 3 -1.</_>
        <_>
          13 5 2 3 2.</_></rects>
      <tilted>0</tilted></_>
    <_>
      <rects>
        <_>
          11 11 4 1 -1.</_>
        <_>
          13 11 2 1 2.</_></rects>
      <tilted>0</tilted></_>
    <_>
      <rects>
        <_>
          11 11 8 6 -1.</_>
        <_>
          11 11 4 3 2.</_>
        <_>
          15 14 4 3 2.</_></rects>
      <tilted>0</tilted></_>
    <_>
      <rects>
        <_>
          12 0 4 4 -1.</_>
        <_>
          12 2 4 2 2.</_></rects>
      <tilted>0</tilted></_>
    <_>
      <rects>
        <_>
          12 2 4 2 -1.</_>
        <_>
          12 2 2 1 2.</_>
        <_>
          14 3 2 1 2.</_></rects>
      <tilted>0</tilted></_>
    <_>
      <rects>
        <_>
          12 6 6 6 -1.</_>
        <_>
          12 6 3 3 2.</_>
        <_>
          15 9 3 3 2.</_></rects>
      <tilted>0</tilted></_>
    <_>
      <rects>
        <_>
          12 10 4 12 -1.</_>
        <_>
          12 10 2 6 2.</_>
        <_>
          14 16 2 6 2.</_></rects>
      <tilted>0</tilted></_>
    <_>
      <rects>
        <_>
          12 13 2 10 -1.</_>
        <_>
          12 13 1 5 2.</_>
        <_>
          13 18 1 5 2.</_></rects>
      <tilted>0</tilted></_>
    <_>
      <rects>
        <_>
          12 14 10 10 -1.</_>
        <_>
          12 14 5 5 2.</_>
        <_>
          17 19 5 5 2.</_></rects>
      <tilted>0</tilted></_>
    <_>
      <rects>
        <_>
          12 17 9 1 -1.</_>
        <_>
          15 17 3 1 2.</_></rects>
      <tilted>0</tilted></_>
    <_>
      <rects>
        <_>
          12 18 7 2 -1.</_>
        <_>
          12 19 7 1 2.</_></rects>
      <tilted>0</tilted></_>
    <_>
      <rects>
        <_>
          12 21 6 2 -1.</_>
        <_>
          12 21 3 1 2.</_>
        <_>
          15 22 3 1 2.</_></rects>
      <tilted>0</tilted></_>
    <_>
      <rects>
        <_>
          12 22 10 2 -1.</_>
        <_>
          12 23 10 1 2.</_></rects>
      <tilted>0</tilted></_>
    <_>
      <rects>
        <_>
          13 0 2 22 -1.</_>
        <_>
          13 0 1 11 2.</_>
        <_>
          14 11 1 11 2.</_></rects>
      <tilted>0</tilted></_>
    <_>
      <rects>
        <_>
          13 0 3 2 -1.</_>
        <_>
          13 1 3 1 2.</_></rects>
      <tilted>0</tilted></_>
    <_>
      <rects>
        <_>
          13 0 5 21 -1.</_>
        <_>
          13 7 5 7 2.</_></rects>
      <tilted>0</tilted></_>
    <_>
      <rects>
        <_>
          13 0 11 6 -1.</_>
        <_>
          13 3 11 3 2.</_></rects>
      <tilted>0</tilted></_>
    <_>
      <rects>
        <_>
          13 12 2 12 -1.</_>
        <_>
          13 12 1 6 2.</_>
        <_>
          14 18 1 6 2.</_></rects>
      <tilted>0</tilted></_>
    <_>
      <rects>
        <_>
          13 15 6 2 -1.</_>
        <_>
          13 16 6 1 2.</_></rects>
      <tilted>0</tilted></_>
    <_>
      <rects>
        <_>
          13 18 10 2 -1.</_>
        <_>
          13 19 10 1 2.</_></rects>
      <tilted>0</tilted></_>
    <_>
      <rects>
        <_>
          14 0 8 12 -1.</_>
        <_>
          18 0 4 12 2.</_></rects>
      <tilted>0</tilted></_>
    <_>
      <rects>
        <_>
          14 0 10 19 -1.</_>
        <_>
          19 0 5 19 2.</_></rects>
      <tilted>0</tilted></_>
    <_>
      <rects>
        <_>
          14 1 4 12 -1.</_>
        <_>
          14 1 2 6 2.</_>
        <_>
          16 7 2 6 2.</_></rects>
      <tilted>0</tilted></_>
    <_>
      <rects>
        <_>
          14 2 4 7 -1.</_>
        <_>
          16 2 2 7 2.</_></rects>
      <tilted>0</tilted></_>
    <_>
      <rects>
        <_>
          14 2 10 15 -1.</_>
        <_>
          19 2 5 15 2.</_></rects>
      <tilted>0</tilted></_>
    <_>
      <rects>
        <_>
          14 14 10 4 -1.</_>
        <_>
          14 14 5 2 2.</_>
        <_>
          19 16 5 2 2.</_></rects>
      <tilted>0</tilted></_>
    <_>
      <rects>
        <_>
          14 15 2 1 -1.</_>
        <_>
          15 15 1 1 2.</_></rects>
      <tilted>0</tilted></_>
    <_>
      <rects>
        <_>
          14 16 2 2 -1.</_>
        <_>
          14 16 1 1 2.</_>
        <_>
          15 17 1 1 2.</_></rects>
      <tilted>0</tilted></_>
    <_>
      <rects>
        <_>
          14 17 8 6 -1.</_>
        <_>
          14 20 8 3 2.</_></rects>
      <tilted>0</tilted></_>
    <_>
      <rects>
        <_>
          15 1 4 3 -1.</_>
        <_>
          17 1 2 3 2.</_></rects>
      <tilted>0</tilted></_>
    <_>
      <rects>
        <_>
          15 5 2 1 -1.</_>
        <_>
          16 5 1 1 2.</_></rects>
      <tilted>0</tilted></_>
    <_>
      <rects>
        <_>
          15 8 8 5 -1.</_>
        <_>
          19 8 4 5 2.</_></rects>
      <tilted>0</tilted></_>
    <_>
      <rects>
        <_>
          15 9 6 4 -1.</_>
        <_>
          15 9 3 2 2.</_>
        <_>
          18 11 3 2 2.</_></rects>
      <tilted>0</tilted></_>
    <_>
      <rects>
        <_>
          15 9 8 2 -1.</_>
        <_>
          15 9 4 1 2.</_>
        <_>
          19 10 4 1 2.</_></rects>
      <tilted>0</tilted></_>
    <_>
      <rects>
        <_>
          15 23 6 1 -1.</_>
        <_>
          17 23 2 1 2.</_></rects>
      <tilted>0</tilted></_>
    <_>
      <rects>
        <_>
          16 0 4 6 -1.</_>
        <_>
          18 0 2 6 2.</_></rects>
      <tilted>0</tilted></_>
    <_>
      <rects>
        <_>
          16 1 6 6 -1.</_>
        <_>
          16 1 3 3 2.</_>
        <_>
          19 4 3 3 2.</_></rects>
      <tilted>0</tilted></_>
    <_>
      <rects>
        <_>
          16 2 2 6 -1.</_>
        <_>
          16 2 1 3 2.</_>
        <_>
          17 5 1 3 2.</_></rects>
      <tilted>0</tilted></_>
    <_>
      <rects>
        <_>
          16 2 2 2 -1.</_>
        <_>
          16 3 2 1 2.</_></rects>
      <tilted>0</tilted></_>
    <_>
      <rects>
        <_>
          16 6 8 4 -1.</_>
        <_>
          16 8 8 2 2.</_></rects>
      <tilted>0</tilted></_>
    <_>
      <rects>
        <_>
          16 7 4 6 -1.</_>
        <_>
          16 7 2 3 2.</_>
        <_>
          18 10 2 3 2.</_></rects>
      <tilted>0</tilted></_>
    <_>
      <rects>
        <_>
          16 12 1 6 -1.</_>
        <_>
          16 15 1 3 2.</_></rects>
      <tilted>0</tilted></_>
    <_>
      <rects>
        <_>
          16 12 8 2 -1.</_>
        <_>
          20 12 4 2 2.</_></rects>
      <tilted>0</tilted></_>
    <_>
      <rects>
        <_>
          16 15 3 2 -1.</_>
        <_>
          16 16 3 1 2.</_></rects>
      <tilted>0</tilted></_>
    <_>
      <rects>
        <_>
          16 19 2 2 -1.</_>
        <_>
          17 19 1 2 2.</_></rects>
      <tilted>0</tilted></_>
    <_>
      <rects>
        <_>
          16 21 6 2 -1.</_>
        <_>
          16 22 6 1 2.</_></rects>
      <tilted>0</tilted></_>
    <_>
      <rects>
        <_>
          17 0 6 22 -1.</_>
        <_>
          17 0 3 11 2.</_>
        <_>
          20 11 3 11 2.</_></rects>
      <tilted>0</tilted></_>
    <_>
      <rects>
        <_>
          17 1 6 12 -1.</_>
        <_>
          17 1 3 6 2.</_>
        <_>
          20 7 3 6 2.</_></rects>
      <tilted>0</tilted></_>
    <_>
      <rects>
        <_>
          17 13 4 4 -1.</_>
        <_>
          17 13 2 2 2.</_>
        <_>
          19 15 2 2 2.</_></rects>
      <tilted>0</tilted></_>
    <_>
      <rects>
        <_>
          17 14 6 4 -1.</_>
        <_>
          17 14 3 2 2.</_>
        <_>
          20 16 3 2 2.</_></rects>
      <tilted>0</tilted></_>
    <_>
      <rects>
        <_>
          18 0 2 16 -1.</_>
        <_>
          19 0 1 16 2.</_></rects>
      <tilted>0</tilted></_>
    <_>
      <rects>
        <_>
          18 1 4 8 -1.</_>
        <_>
          20 1 2 8 2.</_></rects>
      <tilted>0</tilted></_>
    <_>
      <rects>
        <_>
          18 3 2 16 -1.</_>
        <_>
          19 3 1 16 2.</_></rects>
      <tilted>0</tilted></_>
    <_>
      <rects>
        <_>
          18 3 5 2 -1.</_>
        <_>
          18 4 5 1 2.</_></rects>
      <tilted>0</tilted></_>
    <_>
      <rects>
        <_>
          18 4 4 9 -1.</_>
        <_>
          20 4 2 9 2.</_></rects>
      <tilted>0</tilted></_>
    <_>
      <rects>
        <_>
          18 5 6 8 -1.</_>
        <_>
          18 9 6 4 2.</_></rects>
      <tilted>0</tilted></_>
    <_>
      <rects>
        <_>
          18 8 6 14 -1.</_>
        <_>
          21 8 3 14 2.</_></rects>
      <tilted>0</tilted></_>
    <_>
      <rects>
        <_>
          18 13 2 10 -1.</_>
        <_>
          18 13 1 5 2.</_>
        <_>
          19 18 1 5 2.</_></rects>
      <tilted>0</tilted></_>
    <_>
      <rects>
        <_>
          18 17 4 2 -1.</_>
        <_>
          18 17 2 1 2.</_>
        <_>
          20 18 2 1 2.</_></rects>
      <tilted>0</tilted></_>
    <_>
      <rects>
        <_>
          18 19 4 5 -1.</_>
        <_>
          20 19 2 5 2.</_></rects>
      <tilted>0</tilted></_>
    <_>
      <rects>
        <_>
          19 0 2 5 -1.</_>
        <_>
          20 0 1 5 2.</_></rects>
      <tilted>0</tilted></_>
    <_>
      <rects>
        <_>
          19 1 4 6 -1.</_>
        <_>
          21 1 2 6 2.</_></rects>
      <tilted>0</tilted></_>
    <_>
      <rects>
        <_>
          19 2 2 18 -1.</_>
        <_>
          19 2 1 9 2.</_>
        <_>
          20 11 1 9 2.</_></rects>
      <tilted>0</tilted></_>
    <_>
      <rects>
        <_>
          19 2 2 17 -1.</_>
        <_>
          20 2 1 17 2.</_></rects>
      <tilted>0</tilted></_>
    <_>
      <rects>
        <_>
          19 17 4 3 -1.</_>
        <_>
          21 17 2 3 2.</_></rects>
      <tilted>0</tilted></_>
    <_>
      <rects>
        <_>
          19 17 4 4 -1.</_>
        <_>
          19 19 4 2 2.</_></rects>
      <tilted>0</tilted></_>
    <_>
      <rects>
        <_>
          19 18 5 2 -1.</_>
        <_>
          19 19 5 1 2.</_></rects>
      <tilted>0</tilted></_>
    <_>
      <rects>
        <_>
          19 21 1 2 -1.</_>
        <_>
          19 22 1 1 2.</_></rects>
      <tilted>0</tilted></_>
    <_>
      <rects>
        <_>
          20 1 4 2 -1.</_>
        <_>
          20 1 2 1 2.</_>
        <_>
          22 2 2 1 2.</_></rects>
      <tilted>0</tilted></_>
    <_>
      <rects>
        <_>
          20 11 4 8 -1.</_>
        <_>
          22 11 2 8 2.</_></rects>
      <tilted>0</tilted></_>
    <_>
      <rects>
        <_>
          20 12 2 4 -1.</_>
        <_>
          20 12 1 2 2.</_>
        <_>
          21 14 1 2 2.</_></rects>
      <tilted>0</tilted></_>
    <_>
      <rects>
        <_>
          20 18 2 6 -1.</_>
        <_>
          21 18 1 6 2.</_></rects>
      <tilted>0</tilted></_>
    <_>
      <rects>
        <_>
          20 20 2 2 -1.</_>
        <_>
          21 20 1 2 2.</_></rects>
      <tilted>0</tilted></_>
    <_>
      <rects>
        <_>
          20 22 4 2 -1.</_>
        <_>
          22 22 2 2 2.</_></rects>
      <tilted>0</tilted></_>
    <_>
      <rects>
        <_>
          21 0 2 10 -1.</_>
        <_>
          22 0 1 10 2.</_></rects>
      <tilted>0</tilted></_>
    <_>
      <rects>
        <_>
          21 0 3 20 -1.</_>
        <_>
          21 10 3 10 2.</_></rects>
      <tilted>0</tilted></_>
    <_>
      <rects>
        <_>
          21 1 1 2 -1.</_>
        <_>
          21 2 1 1 2.</_></rects>
      <tilted>0</tilted></_>
    <_>
      <rects>
        <_>
          21 1 2 12 -1.</_>
        <_>
          21 1 1 6 2.</_>
        <_>
          22 7 1 6 2.</_></rects>
      <tilted>0</tilted></_>
    <_>
      <rects>
        <_>
          21 2 2 10 -1.</_>
        <_>
          21 2 1 5 2.</_>
        <_>
          22 7 1 5 2.</_></rects>
      <tilted>0</tilted></_>
    <_>
      <rects>
        <_>
          21 10 2 14 -1.</_>
        <_>
          22 10 1 14 2.</_></rects>
      <tilted>0</tilted></_>
    <_>
      <rects>
        <_>
          22 0 2 7 -1.</_>
        <_>
          23 0 1 7 2.</_></rects>
      <tilted>0</tilted></_>
    <_>
      <rects>
        <_>
          22 0 2 15 -1.</_>
        <_>
          23 0 1 15 2.</_></rects>
      <tilted>0</tilted></_>
    <_>
      <rects>
        <_>
          22 1 2 6 -1.</_>
        <_>
          23 1 1 6 2.</_></rects>
      <tilted>0</tilted></_>
    <_>
      <rects>
        <_>
          22 5 1 8 -1.</_>
        <_>
          22 9 1 4 2.</_></rects>
      <tilted>0</tilted></_>
    <_>
      <rects>
        <_>
          22 6 1 8 -1.</_>
        <_>
          22 10 1 4 2.</_></rects>
      <tilted>0</tilted></_>
    <_>
      <rects>
        <_>
          22 6 1 12 -1.</_>
        <_>
          22 12 1 6 2.</_></rects>
      <tilted>0</tilted></_>
    <_>
      <rects>
        <_>
          22 14 1 6 -1.</_>
        <_>
          22 17 1 3 2.</_></rects>
      <tilted>0</tilted></_>
    <_>
      <rects>
        <_>
          22 17 2 2 -1.</_>
        <_>
          22 18 2 1 2.</_></rects>
      <tilted>0</tilted></_>
    <_>
      <rects>
        <_>
          22 19 2 5 -1.</_>
        <_>
          23 19 1 5 2.</_></rects>
      <tilted>0</tilted></_>
    <_>
      <rects>
        <_>
          23 0 1 6 -1.</_>
        <_>
          23 3 1 3 2.</_></rects>
      <tilted>0</tilted></_>
    <_>
      <rects>
        <_>
          23 0 1 15 -1.</_>
        <_>
          23 5 1 5 2.</_></rects>
      <tilted>0</tilted></_>
    <_>
      <rects>
        <_>
          23 22 1 2 -1.</_>
        <_>
          23 23 1 1 2.</_></rects>
      <tilted>0</tilted></_></features></cascade>
</opencv_storage>
