<?xml version="1.0"?>
<opencv_storage>
<stage12>
  <maxWeakCount>5</maxWeakCount>
  <stageThreshold>-6.1258834600448608e-01</stageThreshold>
  <weakClassifiers>
    <_>
      <internalNodes>
        0 -1 105470 -3.7932232953608036e-03</internalNodes>
      <leafValues>
        8.4848487377166748e-01 -4.1791045665740967e-01</leafValues></_>
    <_>
      <internalNodes>
        0 -1 38005 -7.5218896381556988e-04</internalNodes>
      <leafValues>
        -8.4050756692886353e-01 4.1028469800949097e-01</leafValues></_>
    <_>
      <internalNodes>
        0 -1 152724 -7.8702426981180906e-04</internalNodes>
      <leafValues>
        4.6666184067726135e-01 -7.9258048534393311e-01</leafValues></_>
    <_>
      <internalNodes>
        0 -1 95434 2.0544813014566898e-04</internalNodes>
      <leafValues>
        -3.6446583271026611e-01 9.6296995878219604e-01</leafValues></_>
    <_>
      <internalNodes>
        0 -1 48739 1.2149514805059880e-04</internalNodes>
      <leafValues>
        5.5208373069763184e-01 -6.1838638782501221e-01</leafValues></_></weakClassifiers></stage12>
</opencv_storage>
