<?xml version="1.0"?>
<opencv_storage>
<stage19>
  <maxWeakCount>10</maxWeakCount>
  <stageThreshold>-1.0805827379226685e+00</stageThreshold>
  <weakClassifiers>
    <_>
      <internalNodes>
        0 -1 81894 1.0712605901062489e-02</internalNodes>
      <leafValues>
        -4.5849803090095520e-01 7.3451328277587891e-01</leafValues></_>
    <_>
      <internalNodes>
        0 -1 159503 -1.8814147915691137e-03</internalNodes>
      <leafValues>
        7.0310682058334351e-01 -3.1287607550621033e-01</leafValues></_>
    <_>
      <internalNodes>
        0 -1 157365 4.2216473957523704e-04</internalNodes>
      <leafValues>
        3.2828733325004578e-01 -6.1737257242202759e-01</leafValues></_>
    <_>
      <internalNodes>
        0 -1 4990 7.2712416294962168e-04</internalNodes>
      <leafValues>
        4.0670457482337952e-01 -5.0355237722396851e-01</leafValues></_>
    <_>
      <internalNodes>
        0 -1 1930 1.6105149406939745e-03</internalNodes>
      <leafValues>
        -3.6903414130210876e-01 5.7345420122146606e-01</leafValues></_>
    <_>
      <internalNodes>
        0 -1 110126 -1.4791431021876633e-04</internalNodes>
      <leafValues>
        6.7135530710220337e-01 -3.0160009860992432e-01</leafValues></_>
    <_>
      <internalNodes>
        0 -1 120425 -2.1445942111313343e-03</internalNodes>
      <leafValues>
        9.6149563789367676e-01 -1.4025613665580750e-01</leafValues></_>
    <_>
      <internalNodes>
        0 -1 138098 -5.5940574966371059e-03</internalNodes>
      <leafValues>
        5.5071771144866943e-01 -2.9542937874794006e-01</leafValues></_>
    <_>
      <internalNodes>
        0 -1 42987 -1.0753130482044071e-04</internalNodes>
      <leafValues>
        -5.6801384687423706e-01 3.7596282362937927e-01</leafValues></_>
    <_>
      <internalNodes>
        0 -1 98480 -2.3899786174297333e-03</internalNodes>
      <leafValues>
        8.7345206737518311e-01 -2.4824537336826324e-01</leafValues></_></weakClassifiers></stage19>
</opencv_storage>
