<?xml version="1.0"?>
<opencv_storage>
<stage16>
  <maxWeakCount>5</maxWeakCount>
  <stageThreshold>-3.8124746084213257e-01</stageThreshold>
  <weakClassifiers>
    <_>
      <internalNodes>
        0 -1 160 -5.0633813953027129e-04</internalNodes>
      <leafValues>
        -7.7464789152145386e-01 4.2635658383369446e-01</leafValues></_>
    <_>
      <internalNodes>
        0 -1 104415 -2.0076557993888855e-03</internalNodes>
      <leafValues>
        5.9284996986389160e-01 -5.7434368133544922e-01</leafValues></_>
    <_>
      <internalNodes>
        0 -1 46733 4.7366754733957350e-04</internalNodes>
      <leafValues>
        -3.6279031634330750e-01 8.0863970518112183e-01</leafValues></_>
    <_>
      <internalNodes>
        0 -1 142260 5.8147450909018517e-04</internalNodes>
      <leafValues>
        -4.8251247406005859e-01 6.8901908397674561e-01</leafValues></_>
    <_>
      <internalNodes>
        0 -1 54969 8.0480927135795355e-04</internalNodes>
      <leafValues>
        -4.9178883433341980e-01 6.4585322141647339e-01</leafValues></_></weakClassifiers></stage16>
</opencv_storage>
