<?xml version="1.0"?>
<opencv_storage>
<stage8>
  <maxWeakCount>7</maxWeakCount>
  <stageThreshold>-5.7343304157257080e-01</stageThreshold>
  <weakClassifiers>
    <_>
      <internalNodes>
        0 -1 134102 -7.1666583418846130e-02</internalNodes>
      <leafValues>
        4.2857143282890320e-01 -5.4545456171035767e-01</leafValues></_>
    <_>
      <internalNodes>
        0 -1 48512 -3.6736838519573212e-03</internalNodes>
      <leafValues>
        -7.1736395359039307e-01 3.8510012626647949e-01</leafValues></_>
    <_>
      <internalNodes>
        0 -1 115244 -1.3909224420785904e-02</internalNodes>
      <leafValues>
        7.3495525121688843e-01 -3.9849904179573059e-01</leafValues></_>
    <_>
      <internalNodes>
        0 -1 732 6.5177679061889648e-02</internalNodes>
      <leafValues>
        -2.9401230812072754e-01 9.2347985506057739e-01</leafValues></_>
    <_>
      <internalNodes>
        0 -1 161280 -2.5708419343573041e-05</internalNodes>
      <leafValues>
        4.8307687044143677e-01 -5.2659112215042114e-01</leafValues></_>
    <_>
      <internalNodes>
        0 -1 25450 -1.5919747966108844e-05</internalNodes>
      <leafValues>
        -5.7062745094299316e-01 6.0032230615615845e-01</leafValues></_>
    <_>
      <internalNodes>
        0 -1 8846 -2.4004935403354466e-04</internalNodes>
      <leafValues>
        -8.5487210750579834e-01 3.7163507938385010e-01</leafValues></_></weakClassifiers></stage8>
</opencv_storage>
