<?xml version="1.0"?>
<opencv_storage>
<stage60>
  <maxWeakCount>10</maxWeakCount>
  <stageThreshold>-1.0881096124649048e+00</stageThreshold>
  <weakClassifiers>
    <_>
      <internalNodes>
        0 -1 118060 -4.9825128167867661e-02</internalNodes>
      <leafValues>
        4.5562130212783813e-01 -5.0222223997116089e-01</leafValues></_>
    <_>
      <internalNodes>
        0 -1 154247 4.1831524868030101e-05</internalNodes>
      <leafValues>
        -2.8479596972465515e-01 5.8848249912261963e-01</leafValues></_>
    <_>
      <internalNodes>
        0 -1 34047 7.8906735870987177e-04</internalNodes>
      <leafValues>
        -2.8673189878463745e-01 6.6831910610198975e-01</leafValues></_>
    <_>
      <internalNodes>
        0 -1 70140 -1.3405203819274902e-02</internalNodes>
      <leafValues>
        -5.4606169462203979e-01 3.0770504474639893e-01</leafValues></_>
    <_>
      <internalNodes>
        0 -1 72448 7.0853750221431255e-03</internalNodes>
      <leafValues>
        -2.9818323254585266e-01 6.2238377332687378e-01</leafValues></_>
    <_>
      <internalNodes>
        0 -1 155111 -4.3981950730085373e-03</internalNodes>
      <leafValues>
        6.7417746782302856e-01 -2.2151765227317810e-01</leafValues></_>
    <_>
      <internalNodes>
        0 -1 112031 1.0285891592502594e-02</internalNodes>
      <leafValues>
        -2.1272669732570648e-01 8.0039429664611816e-01</leafValues></_>
    <_>
      <internalNodes>
        0 -1 89506 -1.3767317868769169e-03</internalNodes>
      <leafValues>
        6.9740009307861328e-01 -1.5031658113002777e-01</leafValues></_>
    <_>
      <internalNodes>
        0 -1 153814 7.7623012475669384e-04</internalNodes>
      <leafValues>
        -1.2936563789844513e-01 9.6119379997253418e-01</leafValues></_>
    <_>
      <internalNodes>
        0 -1 105152 -3.8539164233952761e-04</internalNodes>
      <leafValues>
        6.4815545082092285e-01 -2.3052175343036652e-01</leafValues></_></weakClassifiers></stage60>
</opencv_storage>
