<?xml version="1.0"?>
<opencv_storage>
<stage79>
  <maxWeakCount>10</maxWeakCount>
  <stageThreshold>-1.3619607686996460e+00</stageThreshold>
  <weakClassifiers>
    <_>
      <internalNodes>
        0 -1 64329 2.6962075935443863e-05</internalNodes>
      <leafValues>
        -5.2727270126342773e-01 4.6368715167045593e-01</leafValues></_>
    <_>
      <internalNodes>
        0 -1 160092 -4.3419115245342255e-03</internalNodes>
      <leafValues>
        -7.0123809576034546e-01 3.0955597758293152e-01</leafValues></_>
    <_>
      <internalNodes>
        0 -1 141024 1.0281171125825495e-04</internalNodes>
      <leafValues>
        5.8456712961196899e-01 -4.0181654691696167e-01</leafValues></_>
    <_>
      <internalNodes>
        0 -1 155457 -1.3947834959253669e-03</internalNodes>
      <leafValues>
        8.3764082193374634e-01 -2.2034417092800140e-01</leafValues></_>
    <_>
      <internalNodes>
        0 -1 95651 5.6597433285787702e-04</internalNodes>
      <leafValues>
        4.2177540063858032e-01 -4.0860444307327271e-01</leafValues></_>
    <_>
      <internalNodes>
        0 -1 45716 5.6622538715600967e-02</internalNodes>
      <leafValues>
        -2.4681434035301208e-01 1.</leafValues></_>
    <_>
      <internalNodes>
        0 -1 13372 -8.2159545854665339e-05</internalNodes>
      <leafValues>
        -5.1078110933303833e-01 4.5488056540489197e-01</leafValues></_>
    <_>
      <internalNodes>
        0 -1 88229 1.3615014904644340e-04</internalNodes>
      <leafValues>
        5.3940689563751221e-01 -3.9506167173385620e-01</leafValues></_>
    <_>
      <internalNodes>
        0 -1 152430 4.8479292308911681e-04</internalNodes>
      <leafValues>
        -3.5886636376380920e-01 7.6950711011886597e-01</leafValues></_>
    <_>
      <internalNodes>
        0 -1 157680 -3.7374743260443211e-04</internalNodes>
      <leafValues>
        -5.5400067567825317e-01 4.2570632696151733e-01</leafValues></_></weakClassifiers></stage79>
</opencv_storage>
