<?xml version="1.0"?>
<opencv_storage>
<stage18>
  <maxWeakCount>5</maxWeakCount>
  <stageThreshold>-2.9672783613204956e-01</stageThreshold>
  <weakClassifiers>
    <_>
      <internalNodes>
        0 -1 119438 5.8407813776284456e-04</internalNodes>
      <leafValues>
        -4.7619047760963440e-01 8.1081080436706543e-01</leafValues></_>
    <_>
      <internalNodes>
        0 -1 38140 -1.0825686622411013e-03</internalNodes>
      <leafValues>
        -9.2951029539108276e-01 5.3110867738723755e-01</leafValues></_>
    <_>
      <internalNodes>
        0 -1 152870 1.0324497707188129e-03</internalNodes>
      <leafValues>
        -5.3913593292236328e-01 8.0932784080505371e-01</leafValues></_>
    <_>
      <internalNodes>
        0 -1 44969 -2.9728393201366998e-05</internalNodes>
      <leafValues>
        -4.9421554803848267e-01 7.4732959270477295e-01</leafValues></_>
    <_>
      <internalNodes>
        0 -1 53048 3.2670460641384125e-02</internalNodes>
      <leafValues>
        -3.8622203469276428e-01 8.9790874719619751e-01</leafValues></_></weakClassifiers></stage18>
</opencv_storage>
