<?xml version="1.0"?>
<opencv_storage>
<stage41>
  <maxWeakCount>5</maxWeakCount>
  <stageThreshold>-3.3338520675897598e-02</stageThreshold>
  <weakClassifiers>
    <_>
      <internalNodes>
        0 -1 49154 -3.0429828257183544e-05</internalNodes>
      <leafValues>
        9.6875000000000000e-01 -4.5588234066963196e-01</leafValues></_>
    <_>
      <internalNodes>
        0 -1 13542 1.5364827588200569e-02</internalNodes>
      <leafValues>
        -4.4854399561882019e-01 8.9736998081207275e-01</leafValues></_>
    <_>
      <internalNodes>
        0 -1 147336 -1.2780381366610527e-02</internalNodes>
      <leafValues>
        1. -3.0562871694564819e-01</leafValues></_>
    <_>
      <internalNodes>
        0 -1 13183 1.8799966201186180e-03</internalNodes>
      <leafValues>
        4.7574055194854736e-01 -9.5512896776199341e-01</leafValues></_>
    <_>
      <internalNodes>
        0 -1 138622 -2.4400424081250094e-05</internalNodes>
      <leafValues>
        8.4622716903686523e-01 -5.1969712972640991e-01</leafValues></_></weakClassifiers></stage41>
</opencv_storage>
