<?xml version="1.0"?>
<opencv_storage>
<stage75>
  <maxWeakCount>7</maxWeakCount>
  <stageThreshold>-9.1644173860549927e-01</stageThreshold>
  <weakClassifiers>
    <_>
      <internalNodes>
        0 -1 118658 -1.8770142924040556e-04</internalNodes>
      <leafValues>
        9.6551722288131714e-01 -5.1888668537139893e-01</leafValues></_>
    <_>
      <internalNodes>
        0 -1 3486 2.9695518314838409e-03</internalNodes>
      <leafValues>
        7.4755549430847168e-01 -4.1763412952423096e-01</leafValues></_>
    <_>
      <internalNodes>
        0 -1 119193 -1.7522234469652176e-02</internalNodes>
      <leafValues>
        8.6984014511108398e-01 -3.0896207690238953e-01</leafValues></_>
    <_>
      <internalNodes>
        0 -1 161307 -5.5936798453330994e-03</internalNodes>
      <leafValues>
        9.7128653526306152e-01 -3.0331838130950928e-01</leafValues></_>
    <_>
      <internalNodes>
        0 -1 26441 -4.7848545014858246e-02</internalNodes>
      <leafValues>
        -6.9340205192565918e-01 4.6311458945274353e-01</leafValues></_>
    <_>
      <internalNodes>
        0 -1 119797 1.3256862293928862e-03</internalNodes>
      <leafValues>
        8.5828167200088501e-01 -3.7565940618515015e-01</leafValues></_>
    <_>
      <internalNodes>
        0 -1 37734 -4.1181324049830437e-03</internalNodes>
      <leafValues>
        -4.8782193660736084e-01 5.4490429162979126e-01</leafValues></_></weakClassifiers></stage75>
</opencv_storage>
