<?xml version="1.0"?>
<opencv_storage>
<stage6>
  <maxWeakCount>5</maxWeakCount>
  <stageThreshold>-5.5592417716979980e-01</stageThreshold>
  <weakClassifiers>
    <_>
      <internalNodes>
        0 -1 147943 1.0362676111981273e-03</internalNodes>
      <leafValues>
        -5.6190478801727295e-01 8.1538462638854980e-01</leafValues></_>
    <_>
      <internalNodes>
        0 -1 109197 -5.7825492694973946e-03</internalNodes>
      <leafValues>
        7.4637115001678467e-01 -6.2546974420547485e-01</leafValues></_>
    <_>
      <internalNodes>
        0 -1 140401 2.8215898200869560e-03</internalNodes>
      <leafValues>
        4.4557830691337585e-01 -8.9288234710693359e-01</leafValues></_>
    <_>
      <internalNodes>
        0 -1 1006 2.5854561477899551e-02</internalNodes>
      <leafValues>
        -4.3938636779785156e-01 9.7073578834533691e-01</leafValues></_>
    <_>
      <internalNodes>
        0 -1 88479 1.2219749623909593e-03</internalNodes>
      <leafValues>
        -6.5711838006973267e-01 6.2525838613510132e-01</leafValues></_></weakClassifiers></stage6>
</opencv_storage>
