<?xml version="1.0"?>
<opencv_storage>
<stage59>
  <maxWeakCount>8</maxWeakCount>
  <stageThreshold>-8.4922474622726440e-01</stageThreshold>
  <weakClassifiers>
    <_>
      <internalNodes>
        0 -1 34931 -2.1351713221520185e-03</internalNodes>
      <leafValues>
        8.5185188055038452e-01 -4.0520447492599487e-01</leafValues></_>
    <_>
      <internalNodes>
        0 -1 161033 -3.0972346663475037e-02</internalNodes>
      <leafValues>
        -3.1880426406860352e-01 5.7149428129196167e-01</leafValues></_>
    <_>
      <internalNodes>
        0 -1 69587 -1.6727975162211806e-04</internalNodes>
      <leafValues>
        -4.1740623116493225e-01 5.0582754611968994e-01</leafValues></_>
    <_>
      <internalNodes>
        0 -1 38543 2.4167494848370552e-03</internalNodes>
      <leafValues>
        -2.0157860219478607e-01 8.3371257781982422e-01</leafValues></_>
    <_>
      <internalNodes>
        0 -1 83660 2.0403107628226280e-03</internalNodes>
      <leafValues>
        5.2057218551635742e-01 -4.4447743892669678e-01</leafValues></_>
    <_>
      <internalNodes>
        0 -1 114373 4.4739039731211960e-04</internalNodes>
      <leafValues>
        -2.3495967686176300e-01 7.3317247629165649e-01</leafValues></_>
    <_>
      <internalNodes>
        0 -1 13552 2.4374056374654174e-04</internalNodes>
      <leafValues>
        7.2109425067901611e-01 -2.3277743160724640e-01</leafValues></_>
    <_>
      <internalNodes>
        0 -1 10671 -3.4362974110990763e-03</internalNodes>
      <leafValues>
        -3.4562897682189941e-01 5.1568478345870972e-01</leafValues></_></weakClassifiers></stage59>
</opencv_storage>
