<?xml version="1.0"?>
<opencv_storage>
<stage22>
  <maxWeakCount>5</maxWeakCount>
  <stageThreshold>-3.2087731361389160e-01</stageThreshold>
  <weakClassifiers>
    <_>
      <internalNodes>
        0 -1 144549 -1.7165224999189377e-03</internalNodes>
      <leafValues>
        8.7692308425903320e-01 -4.2222222685813904e-01</leafValues></_>
    <_>
      <internalNodes>
        0 -1 125821 4.2632408440113068e-03</internalNodes>
      <leafValues>
        6.3248968124389648e-01 -5.8277595043182373e-01</leafValues></_>
    <_>
      <internalNodes>
        0 -1 70796 -1.4788504922762513e-03</internalNodes>
      <leafValues>
        -8.9593380689620972e-01 4.2589327692985535e-01</leafValues></_>
    <_>
      <internalNodes>
        0 -1 60760 2.9246001504361629e-03</internalNodes>
      <leafValues>
        -4.4728091359138489e-01 1.</leafValues></_>
    <_>
      <internalNodes>
        0 -1 94092 -4.8472035676240921e-02</internalNodes>
      <leafValues>
        7.9289042949676514e-01 -5.0975710153579712e-01</leafValues></_></weakClassifiers></stage22>
</opencv_storage>
