<?xml version="1.0"?>
<opencv_storage>
<stage6>
  <maxWeakCount>5</maxWeakCount>
  <stageThreshold>-6.7070573568344116e-01</stageThreshold>
  <weakClassifiers>
    <_>
      <internalNodes>
        0 -1 80974 -2.7930852770805359e-01</internalNodes>
      <leafValues>
        3.6690646409988403e-01 -8.3606559038162231e-01</leafValues></_>
    <_>
      <internalNodes>
        0 -1 15259 2.8473695740103722e-02</internalNodes>
      <leafValues>
        -4.7470977902412415e-01 5.4509878158569336e-01</leafValues></_>
    <_>
      <internalNodes>
        0 -1 155670 -1.0318839922547340e-03</internalNodes>
      <leafValues>
        4.2749056220054626e-01 -6.3927555084228516e-01</leafValues></_>
    <_>
      <internalNodes>
        0 -1 161208 -4.6497315634042025e-04</internalNodes>
      <leafValues>
        5.2049642801284790e-01 -4.6509605646133423e-01</leafValues></_>
    <_>
      <internalNodes>
        0 -1 98242 -1.4125007204711437e-02</internalNodes>
      <leafValues>
        5.9587752819061279e-01 -4.4412332773208618e-01</leafValues></_></weakClassifiers></stage6>
</opencv_storage>
