<?xml version="1.0"?>
<opencv_storage>
<stage10>
  <maxWeakCount>11</maxWeakCount>
  <stageThreshold>-1.1363341808319092e+00</stageThreshold>
  <weakClassifiers>
    <_>
      <internalNodes>
        0 -1 5996 2.3545537143945694e-02</internalNodes>
      <leafValues>
        -5.2289158105850220e-01 3.3333334326744080e-01</leafValues></_>
    <_>
      <internalNodes>
        0 -1 153051 -1.6371859237551689e-02</internalNodes>
      <leafValues>
        1. -1.5611396729946136e-01</leafValues></_>
    <_>
      <internalNodes>
        0 -1 98977 -3.3709048293530941e-03</internalNodes>
      <leafValues>
        4.7956955432891846e-01 -2.6128792762756348e-01</leafValues></_>
    <_>
      <internalNodes>
        0 -1 13392 -1.5316467033699155e-04</internalNodes>
      <leafValues>
        -6.4423179626464844e-01 2.2978448867797852e-01</leafValues></_>
    <_>
      <internalNodes>
        0 -1 152987 -5.1602236926555634e-02</internalNodes>
      <leafValues>
        2.0096106827259064e-01 -7.7145838737487793e-01</leafValues></_>
    <_>
      <internalNodes>
        0 -1 18919 3.9638581802137196e-04</internalNodes>
      <leafValues>
        7.0422840118408203e-01 -2.5096863508224487e-01</leafValues></_>
    <_>
      <internalNodes>
        0 -1 68125 5.3833361016586423e-04</internalNodes>
      <leafValues>
        3.0708068609237671e-01 -4.8175352811813354e-01</leafValues></_>
    <_>
      <internalNodes>
        0 -1 44524 3.1837597489356995e-02</internalNodes>
      <leafValues>
        -2.6188614964485168e-01 7.9790961742401123e-01</leafValues></_>
    <_>
      <internalNodes>
        0 -1 147936 5.0730970542645082e-05</internalNodes>
      <leafValues>
        -2.6728236675262451e-01 5.6682896614074707e-01</leafValues></_>
    <_>
      <internalNodes>
        0 -1 4985 1.4405846595764160e-03</internalNodes>
      <leafValues>
        2.1065978705883026e-01 -7.3867106437683105e-01</leafValues></_>
    <_>
      <internalNodes>
        0 -1 15436 5.4906173609197140e-03</internalNodes>
      <leafValues>
        -3.1641289591789246e-01 5.0728368759155273e-01</leafValues></_></weakClassifiers></stage10>
</opencv_storage>
