<?xml version="1.0"?>
<opencv_storage>
<stage5>
  <maxWeakCount>6</maxWeakCount>
  <stageThreshold>-5.0463390350341797e-01</stageThreshold>
  <weakClassifiers>
    <_>
      <internalNodes>
        0 -1 134940 -6.7135155200958252e-02</internalNodes>
      <leafValues>
        5.0476193428039551e-01 -5.5789476633071899e-01</leafValues></_>
    <_>
      <internalNodes>
        0 -1 162335 -4.1020881326403469e-05</internalNodes>
      <leafValues>
        4.7462210059165955e-01 -5.5020481348037720e-01</leafValues></_>
    <_>
      <internalNodes>
        0 -1 4088 -3.6643996834754944e-02</internalNodes>
      <leafValues>
        -9.2307680845260620e-01 2.0056140422821045e-01</leafValues></_>
    <_>
      <internalNodes>
        0 -1 5871 -4.8263445496559143e-03</internalNodes>
      <leafValues>
        6.5133976936340332e-01 -4.3443694710731506e-01</leafValues></_>
    <_>
      <internalNodes>
        0 -1 19163 5.4614024702459574e-04</internalNodes>
      <leafValues>
        -5.9350866079330444e-01 4.7773572802543640e-01</leafValues></_>
    <_>
      <internalNodes>
        0 -1 70920 1.6209122259169817e-03</internalNodes>
      <leafValues>
        -6.5231889486312866e-01 4.0602299571037292e-01</leafValues></_></weakClassifiers></stage5>
</opencv_storage>
