<?xml version="1.0"?>
<opencv_storage>
<stage10>
  <maxWeakCount>6</maxWeakCount>
  <stageThreshold>-1.8530875444412231e-01</stageThreshold>
  <weakClassifiers>
    <_>
      <internalNodes>
        0 -1 130537 -5.6664273142814636e-04</internalNodes>
      <leafValues>
        7.1171170473098755e-01 -7.4358975887298584e-01</leafValues></_>
    <_>
      <internalNodes>
        0 -1 13546 -4.4590227305889130e-02</internalNodes>
      <leafValues>
        9.8587101697921753e-01 -3.4309241175651550e-01</leafValues></_>
    <_>
      <internalNodes>
        0 -1 85787 1.0301375004928559e-04</internalNodes>
      <leafValues>
        4.4892400503158569e-01 -8.4152102470397949e-01</leafValues></_>
    <_>
      <internalNodes>
        0 -1 155793 -4.5495678205043077e-04</internalNodes>
      <leafValues>
        5.6570041179656982e-01 -5.9676301479339600e-01</leafValues></_>
    <_>
      <internalNodes>
        0 -1 117059 -5.9904740191996098e-04</internalNodes>
      <leafValues>
        -9.2875593900680542e-01 3.5081130266189575e-01</leafValues></_>
    <_>
      <internalNodes>
        0 -1 11930 8.3947693929076195e-03</internalNodes>
      <leafValues>
        -4.6406233310699463e-01 8.0513083934783936e-01</leafValues></_></weakClassifiers></stage10>
</opencv_storage>
