<?xml version="1.0"?>
<opencv_storage>
<stage63>
  <maxWeakCount>8</maxWeakCount>
  <stageThreshold>-1.1551343202590942e+00</stageThreshold>
  <weakClassifiers>
    <_>
      <internalNodes>
        0 -1 107372 4.4138163328170776e-02</internalNodes>
      <leafValues>
        -4.9790793657302856e-01 6.3120567798614502e-01</leafValues></_>
    <_>
      <internalNodes>
        0 -1 119856 -2.7330569922924042e-02</internalNodes>
      <leafValues>
        6.8547815084457397e-01 -3.5049295425415039e-01</leafValues></_>
    <_>
      <internalNodes>
        0 -1 46593 -2.1829842589795589e-03</internalNodes>
      <leafValues>
        -3.0630683898925781e-01 7.4470770359039307e-01</leafValues></_>
    <_>
      <internalNodes>
        0 -1 42625 1.7364583909511566e-02</internalNodes>
      <leafValues>
        7.6443105936050415e-01 -2.1858100593090057e-01</leafValues></_>
    <_>
      <internalNodes>
        0 -1 103219 -3.7517724558711052e-03</internalNodes>
      <leafValues>
        -5.8041173219680786e-01 3.6221203207969666e-01</leafValues></_>
    <_>
      <internalNodes>
        0 -1 12324 -1.4105006121098995e-03</internalNodes>
      <leafValues>
        8.7655574083328247e-01 -2.2899709641933441e-01</leafValues></_>
    <_>
      <internalNodes>
        0 -1 14417 1.6265959129668772e-04</internalNodes>
      <leafValues>
        4.9723628163337708e-01 -3.2684743404388428e-01</leafValues></_>
    <_>
      <internalNodes>
        0 -1 119697 3.9210072718560696e-03</internalNodes>
      <leafValues>
        4.8985934257507324e-01 -4.1229683160781860e-01</leafValues></_></weakClassifiers></stage63>
</opencv_storage>
