<?xml version="1.0"?>
<opencv_storage>
<stage17>
  <maxWeakCount>5</maxWeakCount>
  <stageThreshold>-5.0567716360092163e-01</stageThreshold>
  <weakClassifiers>
    <_>
      <internalNodes>
        0 -1 41419 -2.5937503203749657e-02</internalNodes>
      <leafValues>
        6.9811320304870605e-01 -5.4545456171035767e-01</leafValues></_>
    <_>
      <internalNodes>
        0 -1 40758 -3.0734867323189974e-03</internalNodes>
      <leafValues>
        7.0068609714508057e-01 -5.4444330930709839e-01</leafValues></_>
    <_>
      <internalNodes>
        0 -1 157004 3.5816273884847760e-04</internalNodes>
      <leafValues>
        -6.1225414276123047e-01 5.8785575628280640e-01</leafValues></_>
    <_>
      <internalNodes>
        0 -1 161929 -1.2041031382977962e-02</internalNodes>
      <leafValues>
        9.9034589529037476e-01 -3.5129490494728088e-01</leafValues></_>
    <_>
      <internalNodes>
        0 -1 111301 -3.4660240635275841e-04</internalNodes>
      <leafValues>
        -9.4092744588851929e-01 4.2273285984992981e-01</leafValues></_></weakClassifiers></stage17>
</opencv_storage>
