<?xml version="1.0"?>
<opencv_storage>
<stage33>
  <maxWeakCount>12</maxWeakCount>
  <stageThreshold>-1.4019156694412231e+00</stageThreshold>
  <weakClassifiers>
    <_>
      <internalNodes>
        0 -1 144372 1.3794573955237865e-02</internalNodes>
      <leafValues>
        -5.3417724370956421e-01 2.7678570151329041e-01</leafValues></_>
    <_>
      <internalNodes>
        0 -1 97695 -8.3922967314720154e-03</internalNodes>
      <leafValues>
        -8.3317363262176514e-01 1.3308569788932800e-01</leafValues></_>
    <_>
      <internalNodes>
        0 -1 133756 -2.2838990844320506e-05</internalNodes>
      <leafValues>
        4.8647463321685791e-01 -2.9266422986984253e-01</leafValues></_>
    <_>
      <internalNodes>
        0 -1 157933 1.3266533613204956e-02</internalNodes>
      <leafValues>
        3.6917898058891296e-01 -3.3006256818771362e-01</leafValues></_>
    <_>
      <internalNodes>
        0 -1 7408 -2.8901713085360825e-04</internalNodes>
      <leafValues>
        -6.5294027328491211e-01 2.0524634420871735e-01</leafValues></_>
    <_>
      <internalNodes>
        0 -1 48209 -2.3143753423937596e-05</internalNodes>
      <leafValues>
        4.6064221858978271e-01 -3.4842684864997864e-01</leafValues></_>
    <_>
      <internalNodes>
        0 -1 143031 1.4166758046485484e-04</internalNodes>
      <leafValues>
        4.0052977204322815e-01 -3.5709479451179504e-01</leafValues></_>
    <_>
      <internalNodes>
        0 -1 130756 -4.2594880796968937e-03</internalNodes>
      <leafValues>
        8.9269769191741943e-01 -1.7247107625007629e-01</leafValues></_>
    <_>
      <internalNodes>
        0 -1 114467 6.2683349824510515e-05</internalNodes>
      <leafValues>
        -2.2214613854885101e-01 5.3785091638565063e-01</leafValues></_>
    <_>
      <internalNodes>
        0 -1 28280 -4.2734136804938316e-03</internalNodes>
      <leafValues>
        3.9528346061706543e-01 -3.5577026009559631e-01</leafValues></_>
    <_>
      <internalNodes>
        0 -1 24507 7.1330955252051353e-03</internalNodes>
      <leafValues>
        -4.5634305477142334e-01 3.4238529205322266e-01</leafValues></_>
    <_>
      <internalNodes>
        0 -1 60975 -3.9598625153303146e-03</internalNodes>
      <leafValues>
        7.1466571092605591e-01 -2.1022745966911316e-01</leafValues></_></weakClassifiers></stage33>
</opencv_storage>
