<?xml version="1.0"?>
<opencv_storage>
<stage8>
  <maxWeakCount>5</maxWeakCount>
  <stageThreshold>-7.3224610090255737e-01</stageThreshold>
  <weakClassifiers>
    <_>
      <internalNodes>
        0 -1 5592 6.6854454576969147e-02</internalNodes>
      <leafValues>
        6.7685592174530029e-01 -7.7464789152145386e-01</leafValues></_>
    <_>
      <internalNodes>
        0 -1 113586 1.1882750550284982e-03</internalNodes>
      <leafValues>
        -7.4400961399078369e-01 5.8456885814666748e-01</leafValues></_>
    <_>
      <internalNodes>
        0 -1 65164 3.1083411886356771e-04</internalNodes>
      <leafValues>
        5.1119840145111084e-01 -8.7176322937011719e-01</leafValues></_>
    <_>
      <internalNodes>
        0 -1 50391 -1.9804616458714008e-03</internalNodes>
      <leafValues>
        6.9972217082977295e-01 -6.0662961006164551e-01</leafValues></_>
    <_>
      <internalNodes>
        0 -1 1006 1.9203240051865578e-02</internalNodes>
      <leafValues>
        -4.2450916767120361e-01 9.4688361883163452e-01</leafValues></_></weakClassifiers></stage8>
</opencv_storage>
