<?xml version="1.0"?>
<opencv_storage>
<stage5>
  <maxWeakCount>7</maxWeakCount>
  <stageThreshold>-8.5847073793411255e-01</stageThreshold>
  <weakClassifiers>
    <_>
      <internalNodes>
        0 -1 35079 -3.2777659595012665e-02</internalNodes>
      <leafValues>
        8.0710661411285400e-01 -5.7281553745269775e-01</leafValues></_>
    <_>
      <internalNodes>
        0 -1 95420 -4.6767371892929077e-01</internalNodes>
      <leafValues>
        6.2338531017303467e-01 -8.0670380592346191e-01</leafValues></_>
    <_>
      <internalNodes>
        0 -1 51589 -5.4341857321560383e-03</internalNodes>
      <leafValues>
        7.1254289150238037e-01 -5.7816243171691895e-01</leafValues></_>
    <_>
      <internalNodes>
        0 -1 137361 6.4519816078245640e-05</internalNodes>
      <leafValues>
        -7.7437019348144531e-01 5.4975163936614990e-01</leafValues></_>
    <_>
      <internalNodes>
        0 -1 72 1.0308685712516308e-02</internalNodes>
      <leafValues>
        -3.8357320427894592e-01 9.5309501886367798e-01</leafValues></_>
    <_>
      <internalNodes>
        0 -1 150715 1.6468556132167578e-03</internalNodes>
      <leafValues>
        -7.1805888414382935e-01 5.2330899238586426e-01</leafValues></_>
    <_>
      <internalNodes>
        0 -1 153516 -8.4250690415501595e-03</internalNodes>
      <leafValues>
        -9.4648790359497070e-01 4.0972366929054260e-01</leafValues></_></weakClassifiers></stage5>
</opencv_storage>
