<?xml version="1.0"?>
<opencv_storage>
<stage82>
  <maxWeakCount>11</maxWeakCount>
  <stageThreshold>-9.3676722049713135e-01</stageThreshold>
  <weakClassifiers>
    <_>
      <internalNodes>
        0 -1 101938 -4.2725922539830208e-03</internalNodes>
      <leafValues>
        -5.5145120620727539e-01 2.5000000000000000e-01</leafValues></_>
    <_>
      <internalNodes>
        0 -1 87745 -2.5830492377281189e-03</internalNodes>
      <leafValues>
        -2.6720342040061951e-01 6.3681823015213013e-01</leafValues></_>
    <_>
      <internalNodes>
        0 -1 139203 -2.3767176026012748e-04</internalNodes>
      <leafValues>
        -4.9314025044441223e-01 3.9918231964111328e-01</leafValues></_>
    <_>
      <internalNodes>
        0 -1 118030 -9.7548612393438816e-04</internalNodes>
      <leafValues>
        7.6508790254592896e-01 -1.3311640918254852e-01</leafValues></_>
    <_>
      <internalNodes>
        0 -1 160561 -4.3062032200396061e-03</internalNodes>
      <leafValues>
        8.4655493497848511e-01 -1.3941824436187744e-01</leafValues></_>
    <_>
      <internalNodes>
        0 -1 140111 -3.4222989343106747e-03</internalNodes>
      <leafValues>
        3.3085605502128601e-01 -3.8703843951225281e-01</leafValues></_>
    <_>
      <internalNodes>
        0 -1 112170 3.4792668884620070e-04</internalNodes>
      <leafValues>
        2.9075962305068970e-01 -4.5756465196609497e-01</leafValues></_>
    <_>
      <internalNodes>
        0 -1 6660 1.1813970922958106e-04</internalNodes>
      <leafValues>
        4.3101763725280762e-01 -3.2875144481658936e-01</leafValues></_>
    <_>
      <internalNodes>
        0 -1 70350 1.1441821698099375e-04</internalNodes>
      <leafValues>
        -2.9574888944625854e-01 4.9706885218620300e-01</leafValues></_>
    <_>
      <internalNodes>
        0 -1 106972 -7.8394681215286255e-02</internalNodes>
      <leafValues>
        2.3070885241031647e-01 -5.7643169164657593e-01</leafValues></_>
    <_>
      <internalNodes>
        0 -1 13392 1.3361558376345783e-04</internalNodes>
      <leafValues>
        3.7314724922180176e-01 -3.7307959794998169e-01</leafValues></_></weakClassifiers></stage82>
</opencv_storage>
