<?xml version="1.0"?>
<opencv_storage>
<stage9>
  <maxWeakCount>6</maxWeakCount>
  <stageThreshold>-1.0350098609924316e+00</stageThreshold>
  <weakClassifiers>
    <_>
      <internalNodes>
        0 -1 128027 -5.0604618154466152e-03</internalNodes>
      <leafValues>
        9.1304349899291992e-01 -2.7272728085517883e-01</leafValues></_>
    <_>
      <internalNodes>
        0 -1 43111 4.0487354272045195e-04</internalNodes>
      <leafValues>
        -3.0352890491485596e-01 6.2238901853561401e-01</leafValues></_>
    <_>
      <internalNodes>
        0 -1 157493 -1.4682608889415860e-03</internalNodes>
      <leafValues>
        8.0001550912857056e-01 -2.9826837778091431e-01</leafValues></_>
    <_>
      <internalNodes>
        0 -1 11937 2.2667259909212589e-03</internalNodes>
      <leafValues>
        -4.6604871749877930e-01 5.4615753889083862e-01</leafValues></_>
    <_>
      <internalNodes>
        0 -1 9772 2.2653564810752869e-02</internalNodes>
      <leafValues>
        -2.9604426026344299e-01 8.4718173742294312e-01</leafValues></_>
    <_>
      <internalNodes>
        0 -1 161605 -1.5066066989675164e-03</internalNodes>
      <leafValues>
        5.8650934696197510e-01 -4.9667617678642273e-01</leafValues></_></weakClassifiers></stage9>
</opencv_storage>
