<?xml version="1.0"?>
<opencv_storage>
<stage70>
  <maxWeakCount>10</maxWeakCount>
  <stageThreshold>-1.0521700382232666e+00</stageThreshold>
  <weakClassifiers>
    <_>
      <internalNodes>
        0 -1 6726 -1.3372063403949142e-03</internalNodes>
      <leafValues>
        6.5079367160797119e-01 -4.6855983138084412e-01</leafValues></_>
    <_>
      <internalNodes>
        0 -1 32819 -1.1049570515751839e-02</internalNodes>
      <leafValues>
        7.4892061948776245e-01 -2.7948546409606934e-01</leafValues></_>
    <_>
      <internalNodes>
        0 -1 134936 5.1874097436666489e-02</internalNodes>
      <leafValues>
        4.0615981817245483e-01 -4.3536415696144104e-01</leafValues></_>
    <_>
      <internalNodes>
        0 -1 65099 4.4409455731511116e-03</internalNodes>
      <leafValues>
        4.7034537792205811e-01 -4.0601536631584167e-01</leafValues></_>
    <_>
      <internalNodes>
        0 -1 117501 2.7071801014244556e-04</internalNodes>
      <leafValues>
        -3.0816927552223206e-01 6.7198228836059570e-01</leafValues></_>
    <_>
      <internalNodes>
        0 -1 129068 1.1465054936707020e-02</internalNodes>
      <leafValues>
        -2.0141078531742096e-01 7.5698870420455933e-01</leafValues></_>
    <_>
      <internalNodes>
        0 -1 146284 -8.7964587146416306e-04</internalNodes>
      <leafValues>
        3.6842903494834900e-01 -5.7099616527557373e-01</leafValues></_>
    <_>
      <internalNodes>
        0 -1 154563 -1.7685827333480120e-04</internalNodes>
      <leafValues>
        5.6228578090667725e-01 -3.5305607318878174e-01</leafValues></_>
    <_>
      <internalNodes>
        0 -1 157680 -8.0636993516236544e-04</internalNodes>
      <leafValues>
        -4.1350972652435303e-01 4.4590038061141968e-01</leafValues></_>
    <_>
      <internalNodes>
        0 -1 152055 5.9941080398857594e-03</internalNodes>
      <leafValues>
        -2.5596249103546143e-01 9.0342515707015991e-01</leafValues></_></weakClassifiers></stage70>
</opencv_storage>
