<?xml version="1.0"?>
<opencv_storage>
<stage13>
  <maxWeakCount>6</maxWeakCount>
  <stageThreshold>-7.9355406761169434e-01</stageThreshold>
  <weakClassifiers>
    <_>
      <internalNodes>
        0 -1 92007 -6.7767053842544556e-03</internalNodes>
      <leafValues>
        7.9695433378219604e-01 -5.5339807271957397e-01</leafValues></_>
    <_>
      <internalNodes>
        0 -1 36624 -1.2953118421137333e-03</internalNodes>
      <leafValues>
        7.8044962882995605e-01 -4.8790583014488220e-01</leafValues></_>
    <_>
      <internalNodes>
        0 -1 161645 -7.2672055102884769e-04</internalNodes>
      <leafValues>
        9.4452637434005737e-01 -3.1856727600097656e-01</leafValues></_>
    <_>
      <internalNodes>
        0 -1 5179 4.3071474647149444e-04</internalNodes>
      <leafValues>
        5.2725166082382202e-01 -7.1409869194030762e-01</leafValues></_>
    <_>
      <internalNodes>
        0 -1 143192 8.3788378105964512e-05</internalNodes>
      <leafValues>
        -7.6545834541320801e-01 4.8122090101242065e-01</leafValues></_>
    <_>
      <internalNodes>
        0 -1 133675 1.3443338684737682e-03</internalNodes>
      <leafValues>
        -4.6389877796173096e-01 8.7946695089340210e-01</leafValues></_></weakClassifiers></stage13>
</opencv_storage>
