<?xml version="1.0"?>
<opencv_storage>
<stage20>
  <maxWeakCount>5</maxWeakCount>
  <stageThreshold>-6.3689798116683960e-01</stageThreshold>
  <weakClassifiers>
    <_>
      <internalNodes>
        0 -1 136753 -1.1636542621999979e-03</internalNodes>
      <leafValues>
        7.3831772804260254e-01 -6.7441862821578979e-01</leafValues></_>
    <_>
      <internalNodes>
        0 -1 16244 -2.8444774448871613e-02</internalNodes>
      <leafValues>
        8.2282435894012451e-01 -4.0990465879440308e-01</leafValues></_>
    <_>
      <internalNodes>
        0 -1 42528 1.0090285213664174e-03</internalNodes>
      <leafValues>
        5.3376132249832153e-01 -7.6847958564758301e-01</leafValues></_>
    <_>
      <internalNodes>
        0 -1 161948 -8.7198865367099643e-04</internalNodes>
      <leafValues>
        8.3137273788452148e-01 -4.2931032180786133e-01</leafValues></_>
    <_>
      <internalNodes>
        0 -1 138766 1.4417534111998975e-04</internalNodes>
      <leafValues>
        3.8453218340873718e-01 -8.2245773077011108e-01</leafValues></_></weakClassifiers></stage20>
</opencv_storage>
