<?xml version="1.0"?>
<opencv_storage>
<stage3>
  <maxWeakCount>5</maxWeakCount>
  <stageThreshold>1.5344237908720970e-03</stageThreshold>
  <weakClassifiers>
    <_>
      <internalNodes>
        0 -1 234 2.0202567800879478e-02</internalNodes>
      <leafValues>
        -6.6315788030624390e-01 6.0000002384185791e-01</leafValues></_>
    <_>
      <internalNodes>
        0 -1 128496 2.1270524710416794e-02</internalNodes>
      <leafValues>
        -6.2442862987518311e-01 6.1810958385467529e-01</leafValues></_>
    <_>
      <internalNodes>
        0 -1 157427 -3.1515647424384952e-04</internalNodes>
      <leafValues>
        5.0297164916992188e-01 -7.5995945930480957e-01</leafValues></_>
    <_>
      <internalNodes>
        0 -1 13394 -1.9927170127630234e-02</internalNodes>
      <leafValues>
        -1. 3.4546187520027161e-01</leafValues></_>
    <_>
      <internalNodes>
        0 -1 98893 3.1476796721108258e-04</internalNodes>
      <leafValues>
        -6.6949683427810669e-01 4.6108031272888184e-01</leafValues></_></weakClassifiers></stage3>
</opencv_storage>
