<?xml version="1.0"?>
<opencv_storage>
<stage29>
  <maxWeakCount>6</maxWeakCount>
  <stageThreshold>-6.1766952276229858e-01</stageThreshold>
  <weakClassifiers>
    <_>
      <internalNodes>
        0 -1 157564 -3.0050168788875453e-05</internalNodes>
      <leafValues>
        7.2413790225982666e-01 -5.5752211809158325e-01</leafValues></_>
    <_>
      <internalNodes>
        0 -1 68294 -5.6540020741522312e-03</internalNodes>
      <leafValues>
        9.7609263658523560e-01 -3.9056551456451416e-01</leafValues></_>
    <_>
      <internalNodes>
        0 -1 133071 -1.4708589296787977e-03</internalNodes>
      <leafValues>
        9.2759907245635986e-01 -3.3949917554855347e-01</leafValues></_>
    <_>
      <internalNodes>
        0 -1 155113 -2.9806134989485145e-04</internalNodes>
      <leafValues>
        6.7371958494186401e-01 -5.0818222761154175e-01</leafValues></_>
    <_>
      <internalNodes>
        0 -1 98819 -5.9489727020263672e-02</internalNodes>
      <leafValues>
        -5.2732264995574951e-01 6.9152092933654785e-01</leafValues></_>
    <_>
      <internalNodes>
        0 -1 127954 1.2927129864692688e-03</internalNodes>
      <leafValues>
        5.3970944881439209e-01 -7.4357783794403076e-01</leafValues></_></weakClassifiers></stage29>
</opencv_storage>
