<?xml version="1.0"?>
<opencv_storage>
<stage45>
  <maxWeakCount>10</maxWeakCount>
  <stageThreshold>-7.3087471723556519e-01</stageThreshold>
  <weakClassifiers>
    <_>
      <internalNodes>
        0 -1 127922 -2.3490129970014095e-03</internalNodes>
      <leafValues>
        3.5384616255760193e-01 -6.7130917310714722e-01</leafValues></_>
    <_>
      <internalNodes>
        0 -1 24184 -9.6419302280992270e-04</internalNodes>
      <leafValues>
        5.8841222524642944e-01 -3.4712925553321838e-01</leafValues></_>
    <_>
      <internalNodes>
        0 -1 10415 3.1771726207807660e-04</internalNodes>
      <leafValues>
        5.1448166370391846e-01 -3.3748108148574829e-01</leafValues></_>
    <_>
      <internalNodes>
        0 -1 64903 1.1319181649014354e-03</internalNodes>
      <leafValues>
        4.6585950255393982e-01 -4.1731593012809753e-01</leafValues></_>
    <_>
      <internalNodes>
        0 -1 38384 -2.0884210243821144e-04</internalNodes>
      <leafValues>
        5.7099866867065430e-01 -3.0017229914665222e-01</leafValues></_>
    <_>
      <internalNodes>
        0 -1 115139 -4.1827103123068810e-03</internalNodes>
      <leafValues>
        7.9175561666488647e-01 -1.9784265756607056e-01</leafValues></_>
    <_>
      <internalNodes>
        0 -1 4703 -2.7681952342391014e-03</internalNodes>
      <leafValues>
        7.6807439327239990e-01 -2.7335497736930847e-01</leafValues></_>
    <_>
      <internalNodes>
        0 -1 159674 2.1006899260100909e-05</internalNodes>
      <leafValues>
        -2.2636404633522034e-01 6.9463503360748291e-01</leafValues></_>
    <_>
      <internalNodes>
        0 -1 84930 -2.9483079910278320e-02</internalNodes>
      <leafValues>
        7.2751444578170776e-01 -2.1503184735774994e-01</leafValues></_>
    <_>
      <internalNodes>
        0 -1 12528 8.6599728092551231e-05</internalNodes>
      <leafValues>
        5.3199285268783569e-01 -3.6651533842086792e-01</leafValues></_></weakClassifiers></stage45>
</opencv_storage>
