<?xml version="1.0"?>
<opencv_storage>
<stage4>
  <maxWeakCount>5</maxWeakCount>
  <stageThreshold>-8.0070656538009644e-01</stageThreshold>
  <weakClassifiers>
    <_>
      <internalNodes>
        0 -1 123233 7.5943470001220703e-02</internalNodes>
      <leafValues>
        -6.8421053886413574e-01 8.0487805604934692e-01</leafValues></_>
    <_>
      <internalNodes>
        0 -1 85672 -1.5895593678578734e-03</internalNodes>
      <leafValues>
        6.9533449411392212e-01 -6.4480650424957275e-01</leafValues></_>
    <_>
      <internalNodes>
        0 -1 156792 9.4365852419286966e-05</internalNodes>
      <leafValues>
        -6.8464356660842896e-01 5.6539881229400635e-01</leafValues></_>
    <_>
      <internalNodes>
        0 -1 28302 -3.9689736440777779e-03</internalNodes>
      <leafValues>
        8.8502353429794312e-01 -4.9518752098083496e-01</leafValues></_>
    <_>
      <internalNodes>
        0 -1 32763 1.4967055758461356e-03</internalNodes>
      <leafValues>
        4.5809912681579590e-01 -8.6530095338821411e-01</leafValues></_></weakClassifiers></stage4>
</opencv_storage>
