<?xml version="1.0"?>
<opencv_storage>
<stage30>
  <maxWeakCount>5</maxWeakCount>
  <stageThreshold>-1.0886847972869873e+00</stageThreshold>
  <weakClassifiers>
    <_>
      <internalNodes>
        0 -1 5005 -8.9354609372094274e-05</internalNodes>
      <leafValues>
        7.4358975887298584e-01 -4.7540983557701111e-01</leafValues></_>
    <_>
      <internalNodes>
        0 -1 890 5.0991423428058624e-02</internalNodes>
      <leafValues>
        -5.1574367284774780e-01 7.6869136095046997e-01</leafValues></_>
    <_>
      <internalNodes>
        0 -1 157854 -3.1385954935103655e-04</internalNodes>
      <leafValues>
        -5.1631295680999756e-01 7.3367226123809814e-01</leafValues></_>
    <_>
      <internalNodes>
        0 -1 78356 -3.3847999293357134e-04</internalNodes>
      <leafValues>
        7.9096728563308716e-01 -5.5532866716384888e-01</leafValues></_>
    <_>
      <internalNodes>
        0 -1 58709 -8.6369141936302185e-03</internalNodes>
      <leafValues>
        8.3845084905624390e-01 -3.7218555808067322e-01</leafValues></_></weakClassifiers></stage30>
</opencv_storage>
