<?xml version="1.0"?>
<opencv_storage>
<stage14>
  <maxWeakCount>5</maxWeakCount>
  <stageThreshold>-8.4363740682601929e-01</stageThreshold>
  <weakClassifiers>
    <_>
      <internalNodes>
        0 -1 33905 -2.6955264620482922e-03</internalNodes>
      <leafValues>
        7.8571426868438721e-01 -5.1923078298568726e-01</leafValues></_>
    <_>
      <internalNodes>
        0 -1 156497 1.8085580319166183e-02</internalNodes>
      <leafValues>
        -4.1580456495285034e-01 8.7034887075424194e-01</leafValues></_>
    <_>
      <internalNodes>
        0 -1 96045 -3.5883018426829949e-05</internalNodes>
      <leafValues>
        5.6769454479217529e-01 -6.5625971555709839e-01</leafValues></_>
    <_>
      <internalNodes>
        0 -1 24825 -1.0947242844849825e-04</internalNodes>
      <leafValues>
        -8.1970030069351196e-01 4.4680508971214294e-01</leafValues></_>
    <_>
      <internalNodes>
        0 -1 95388 2.0671552047133446e-03</internalNodes>
      <leafValues>
        3.0085256695747375e-01 -9.3024593591690063e-01</leafValues></_></weakClassifiers></stage14>
</opencv_storage>
